{"config": {"n_layer": 1, "n_embd": 24, "block_size": 16, "n_head": 4}, "weights": {"wte": [[0.09250751195709314, -0.41633053677718473, -0.13414479215572803, -0.12060342539822068, 0.033255134902951164, -0.18354642354682943, 0.25140171320063204, 0.11338635967620318, 0.024624155054667467, -0.03564310511759244, 0.030654433227564084, 0.15443397045345372, 0.3945117532440562, 0.1314604548324596, -0.20576189135714534, -0.2958001575674804, 0.21828710142912128, -0.019000622379893348, -0.07313983906483712, -0.08180119401893372, 0.2033272476290363, 0.11641888821798714, -0.012555313558459758, 0.143145100231486], [0.1261804039329668, -0.0479882144018675, 0.01953668269349387, 0.021229347220761145, 0.12147345928269514, -0.14794520105895922, -0.011337978404413177, -0.1758090605203299, -0.153522268619217, -0.027455207052907497, -0.02550683924835205, 0.0940899764534679, 0.11188676875417933, -0.042390314414577815, 0.012104920307106241, -0.06129337233791507, 0.044929257219456196, 0.03528831044348764, 0.061665139693189916, 0.12382099700669191, 5.935481237083386e-05, -0.02908626599352747, 0.10644540189036394, -0.0050827515246711485], [-0.12680507948344377, -0.0828633454951728, 0.09442453822906277, -0.10182820512561089, 0.1607677914627436, 0.3283452354988733, -0.11450688800887045, -0.2010458700589191, 0.1264270284294173, 0.1417523811388365, 0.009819216274178234, 0.26522350073202555, 0.2847662624769991, -0.1913277675618149, -0.23626408134664223, -0.14320267193795896, 0.2652466335707027, -0.271364579351734, 0.013083606980847276, 0.1742121079357, -0.03487425978801587, -0.032648771347241326, 0.07407734895772208, 0.2634844153548861], [0.049597421421850835, -0.04875227669144497, -0.04494380738672245, -0.06652648809936053, 0.07618188478526565, -0.04534662678509608, -0.005620861896047812, 0.05994420954317401, -0.05787703925211254, -0.023492637089417484, -0.14730290124831327, -0.08659828952309706, -0.04541891297534798, 0.033260879081333725, 0.09547946179546378, -0.0014773450530969306, 0.02090914233598423, 0.013437549483778571, 0.0867792890762883, 0.07146841589905653, 0.02189546523260338, -0.08087554427562495, 0.07227082514756758, 0.030483770236460175], [-0.4065085069216994, 0.15747958410580828, 0.1075435879968352, -0.05735106148701737, 0.05095329428534934, 0.33928120012360297, 0.14493280231017586, -0.004154106144429121, -0.0004032365116829823, 0.46101096090284793, 0.1751841856875515, -0.07686298381784257, -0.09322106112542602, 0.10287575181190813, -0.04878343000480615, -0.12273557932173748, -0.17794874621543294, 0.054500054593443065, 0.05599629559623704, -0.059683734651911784, -0.016385395233376992, 0.21749899057607527, -0.20698411092039445, 0.23801037336731204], [0.04572212666242223, -0.1738159919376104, 0.10420919117265491, -0.17647604160108654, 0.1589774186402292, -0.05394065225937217, 0.2683071406215167, 0.09283415076164815, 0.13504213373792076, -0.03962750285914394, -0.03622330781180364, 0.11718526861068408, 0.22220022954396312, -0.20846782323731447, 0.13080143333901742, -0.0020072311035305383, 0.2389153600184213, -0.027610893557852154, 0.021577087987923925, -0.148473816241872, -0.11238257325633473, -0.061884785676630076, 0.06412944929262508, 0.20987899623507655], [-0.04888198623878779, 0.025631347616409016, -0.12552011357405837, -0.03163700626609428, 0.020891830407287926, 0.06591680100156042, 0.11584813494624806, -0.003531854106341545, -0.0893795903248709, 0.03662803195932319, 0.04135896787310347, 0.03933266742706158, -0.05602301593397865, 0.09067075180695103, 0.007031672872361196, 0.05598596973727886, 0.10192585920755581, 0.0487417856452681, 0.022921282238541646, 0.17222361880804193, 0.019496243277772007, -0.023677138621766514, 0.008957363006642394, 0.11862149347497081], [0.11164208651389755, 0.27969976582214323, -0.058243316067141906, 0.15828784971488338, 0.08485021814059585, 0.049512777687533496, -0.2173964461991692, -0.15135873534110675, -0.025547798065356262, -0.15776628381092164, 0.04167746981775171, 0.03840791001035197, -0.01821831109864431, -0.050948925634142175, -0.1408940885009742, 0.04666873793681529, -6.52931482064332e-05, 0.21888582235245407, 0.025705867608782178, -0.02684942150311534, -0.03165281957500019, -0.0889746587084897, -0.2523816514658391, -0.010804521050285247], [-0.012493683332356788, 0.19399493513321783, -0.16169836312261948, 0.04290857613824866, -0.011785549091725847, 0.004698319843087492, 0.16484125890238185, 0.012028269806983774, 0.166561367851221, -0.022657696434517507, 0.040755100285654856, -0.05198193909601683, -0.04254090939986384, -0.007715181177966425, -0.035319853402916185, 0.0034852148954922202, -0.18111635814227886, 0.17291155151089313, -0.02607388884357999, 0.12671859844026162, -0.09328308445115348, 0.03611697421788253, 0.24048122866571664, -0.05686419609840695], [0.061573415449466665, 0.14469977096855977, 0.16162926162962687, 0.06160910465511142, 0.4354790233787971, -0.02849593394214133, -0.40512266619788817, -0.019594495162195934, 0.07205671145609148, 0.0143296785787117, -0.22782835261342618, 0.026142782708174297, 0.30413958961494575, 0.2105201932339347, -0.1096995546952172, 0.1386353608202394, -0.24484930562614812, 0.0010296567978175081, 0.2697199098274481, -0.025434628648518098, -0.11759493398981904, -0.20034876062730161, -0.026736581500476864, -0.23972262335494215], [-0.0925579515407809, 0.051472734621119454, -0.1849824884836528, -0.02666224204875949, 0.03599026656809689, 0.12176101797319522, 0.0057039740040777465, 0.0801027151611288, -0.031920325742487377, -0.05955231892256726, -0.053951443074997274, 0.12218686255214659, 0.07953769151181966, 0.038991834117009225, 0.2664215090849417, -0.0025873098020919535, 0.04962797208230411, 0.024607324204680904, -0.017750855209932796, 0.18529370782172136, 0.12052838424296909, -0.11195837076964436, -0.03198770578281723, 0.03426692306946298], [0.0626546572033638, -0.10787576558507038, -0.18044492696174425, -0.15250935750094258, -0.005688917067297524, -0.008256254323174193, 0.02761755008916115, -0.06157398223032467, -0.097939014072485, -0.16184360460634797, 0.02633498869979494, 0.029604316679022125, 0.07943949362845691, 0.06326365503833861, -0.015257246474955391, 0.10794087702027882, -0.010909352922123954, -0.05286691090544579, -0.04164627546428545, -0.04678493157643149, -0.1732589375600273, 0.012506084238861338, 0.01999084734097327, -0.028981264870567857], [-0.05710731760691318, 0.0297443059484221, 0.13734964700381527, 0.0030604122003985053, -0.040610688576776514, -0.047315776193834445, -0.005580515051612978, -0.10118124568331538, -0.01002085505584637, 0.0048945811469424585, 0.1475742950212952, 0.07547790112906999, 0.08272233885199037, -0.0570358832879392, 0.05359372345889944, -0.09115059796399334, 0.024956855735269592, 0.0334989808335087, -0.061312753284978906, 0.15995038441291917, 0.04538989302005304, -0.1522182642315607, 0.044228790927664685, -0.03259294551120065], [0.00011009726530415366, 0.03726118327313465, 0.03124261338492337, -0.16313210744276924, -0.09266557948908676, 0.06180993268596734, 0.10409633993834325, 0.15225223093300005, 0.1442534590922484, -0.16444292837043836, 0.06155856967491606, -0.15330321608920827, 0.12908805828335962, 0.02026795222576388, -0.09129350303816314, 0.1607920757672912, 0.05151766962326973, -0.1512919111161178, 0.023477449396849648, -0.058491192613230436, 0.008903638397619163, -0.03721556916442907, 0.10987951090149237, -0.11386291105468596], [-0.03425569762445226, 0.20478318833300949, -0.006508701545560532, -0.042796222737491556, 0.07580826188366198, -0.1148242773229762, 0.11147959285025656, 0.06741211878345586, -0.1351495231141024, 0.20060941393885343, 0.0036813650812349535, 0.04627956713272188, 0.008714144865423, -0.12239713944621242, 0.03882717947211598, -0.07136632695080694, 0.09640315425776831, -0.0744046401489147, 0.10896087561238979, -0.06892645105079935, 0.12075643308574928, -0.07430499529270414, 0.12601511367854987, 0.11343878813942887], [-0.009328784052894452, -0.06878217923412698, -0.07520959924350444, -0.05925894561126162, -0.07875901146278479, 0.06926371370032411, -0.0037281850008322234, 0.12560807820580241, 0.18234638621641117, 0.0019377976857788868, -0.12384137618746982, -0.03051628252322252, -0.006027873353315478, -0.11907538761222408, -0.020039462184244128, 0.022955704731350744, -0.03675422769579007, -0.0614740738330285, -0.06070054076502472, 0.14293469842875298, -0.012771686423815211, -0.06639440917468516, -0.029831871255610046, 0.0763474966436296], [-0.05477504352340461, 0.038547784746546306, 0.058230795911976066, 0.059929426576078026, 0.11197557369573202, -0.04403855837091263, 0.09061862897455977, -0.06342828798490956, -0.03172319015993803, 0.09568697384482923, 0.06579003224889413, 0.00016780404787257143, -0.09531310608239023, 0.04493278616746595, -0.05042981595865846, -0.07391078625679304, -0.05185074035428783, 0.019719523192035487, -0.1696825684345209, 0.028861052256959133, 0.01391276957679543, -0.04676211219496049, 0.08295418347602848, 0.0489152338954206], [-0.04850273163721213, -0.0536013297416739, 0.055612118036954275, -0.12128588475328592, -0.02660979438032888, -0.05048372219797405, 0.005590198772316979, 0.016890121791261196, 0.0029430331971424402, 0.09078784609755318, 0.0182450427705606, -0.025199380097377447, -0.0968683926046065, 0.05774798374861845, 0.04225172366813507, 0.11606476359174024, -0.059796386676144654, 0.002113443206854895, -0.004695415807515058, -0.007008868739965271, 0.0008312169061690919, -0.13716315922251704, 0.06599884272205216, 0.0522564697065574], [0.09043787206870528, 0.17996594931954804, -0.02551737549086145, -0.00289145411450492, 0.0007826852098671778, 0.1553748360566765, -0.13849757781879457, 0.03886143761659186, -0.11766650939587507, -0.20652566256985494, -0.161666623319035, -0.11054148445666981, 0.0855220351536561, -0.06946883303726155, -0.018196612742513493, -0.09308102081439153, 0.048876038257979613, -0.08815692196006511, 0.1054121740804132, -0.07944843314138253, -0.061186195038289995, 0.00981928363219452, 0.0019768976662290667, 0.1139752071002308], [0.00963258304745365, -0.09662674306886997, -0.044826821927705235, -0.045822715469426706, 0.05800337769049929, 0.030703440704976794, -0.009551281840970966, 0.06956857760027084, -0.04227971337426153, -0.010898699864968012, 0.014460832346662967, 0.1222545026211823, -0.007882654425887356, -0.02806391270517879, -0.0836669630169833, 0.05488417466531683, -0.04701162993976324, 0.027494801429431975, -0.15212879123117698, 0.08345495670520092, -0.10655502143908831, -0.062187389086033315, 0.08468649078821117, -0.10675765887795087], [-0.006356402829858754, 0.005940486486439194, -0.07988454506662747, 0.10743464012399784, 0.1199022641859534, -0.15772940028759613, -0.11591922379188041, 0.06465857619944056, -0.10424193082938515, -0.031090988285361738, 0.010364167066706613, 0.05534800658506885, -0.01786020755290481, 0.007617673584163059, -0.062138633388038426, 0.10338892787471143, -0.039625108552142685, 0.02717863100608026, -0.040931046926658735, 0.008505879258754723, -0.013453048351997234, -0.0129971337252083, -0.08110246865683973, 0.06371302353904293], [0.17113964880755536, 0.17339173377547284, 0.03168293531416262, 0.1834058478849652, 0.17597603971672376, 0.06820993504366607, -0.1446350347696452, -0.06098365641623042, -0.023745719075786122, -0.18909049965102356, 0.047768198702648076, -0.14702139923133845, -0.08548594926278583, -0.009991932164281521, 0.08009190400388257, 0.12853614285436363, -0.06920461226339669, 0.12177506740367319, 0.02953347928969094, -0.07744371161937166, -0.09274665457516167, -0.04390530757534179, -0.11213998392960699, 0.0017320126683254224], [0.02507956221040194, 0.12710174387489392, 0.2877831252871543, 0.06550576576056293, 0.16995831658079422, 0.035724686020443194, -0.31024133189886705, -0.1038499016581224, 0.16365240183664223, 0.1449612757077809, -0.16421389803908304, 0.027600430501835714, 0.3531454752167925, -0.07416737219002041, -0.20926980834562342, -0.06238434948838324, -0.1479383024823094, 0.04906062488073554, 0.27240354027709696, 0.10788858058071416, -0.22684979058563007, -0.3017645452854691, 0.12589904391488424, -0.2766330868666443], [-0.012251145638603609, 0.3163025793870364, -0.11657496132267137, 0.05454041659599273, 0.09193666032558989, 0.28387578839612737, 0.15081985370202247, -0.2562751365594855, -0.2891420358725706, 0.14311210636696325, -0.003580093606001239, -0.3172153174964849, -0.02941839240738614, -0.29329261090171893, 0.007527463247004875, 0.114597629792335, -0.24004013641837288, -0.1461929853308185, -0.09307640529786072, 0.11714569046365983, -0.14292332841573113, -0.17187519108323485, -0.1535204665407221, 0.24762223716410026], [0.019862207646194344, -0.10441935992897083, -0.05766941720265638, -0.003664250615650849, -0.0032167078272877037, 0.04098248257450476, 0.06515269826581885, 0.10851596120350296, -0.04850723647148529, -0.2601374612153533, 0.0625667185183401, 0.08818797569600009, -0.14628319624528477, 0.11147687348551105, 0.14923981215428178, -0.15327376756731925, 0.16355633914138615, 0.139955117422345, -0.10845760753081381, 0.05474424769214448, -0.18020316426321406, -0.10633734961336623, 0.3661425760031979, -0.15339880140037454], [0.1247669711361096, -0.14443816796145054, -0.08703257884020142, 0.022994418521771174, -0.10245649832328989, -0.18139290388734386, -0.11007866549059642, 0.15252108991205998, 0.2384516960679004, 0.13989027372607757, -0.050911168557233766, -0.03145104273630636, -0.02435154618693239, -0.05547988489878865, -0.022027738021048366, -0.03244176777250267, 0.024510473122383032, 0.002354627700231631, 0.020629191259376504, -0.044933593076573713, 0.2111101807541499, -0.1269332174085709, -0.050490560780682495, -0.01752710032451564], [0.049518992087997635, -0.12197242908009219, 0.028163949507623007, -0.015596204705137479, -0.2532685275779761, -0.0604620500213354, -0.04927050427766134, -0.012846403597851372, 0.17953702365292976, 0.03641667900857071, -0.02578531436513524, 0.06461806136161424, -0.07150035182892381, 0.09682229633272597, -0.031848755094524485, -0.04069419940164566, 0.06114559086153544, -0.14316539435428893, -0.015391374950994595, -0.04271364865739446, 0.004309037099866679, 0.002257620553452373, 0.10823494583665469, -0.0345537895547139], [-0.1353652137599763, -0.02570584434159537, 0.09420018103368953, 0.26140788843167173, 0.12656538867423386, -0.053619287285569306, 0.16399756891123424, -0.15072803519989758, -0.06958425934928204, 0.1156853198123349, 0.03734445066637345, -0.0585903541274568, 0.1048499872319899, -0.13442256002406394, 0.019369663366315258, -0.16972753072132207, 0.04531959184502523, -0.281587969498127, -0.1271530856149428, 0.007140659713878127, 0.04937303059719789, -0.010675989534122562, -0.3899571048127623, 0.17334519509685503], [0.12860952841460013, -0.03637828835879927, 0.04242491387097153, -0.10723174970218116, -0.0601892374919163, -0.2782890982880684, 0.023034471808223395, -0.04299772525778024, 0.12909293382618794, -0.03716442945411345, 0.04316157127938875, -0.14013231155411543, 0.12824946939946272, 0.09044558219055868, 0.162900944770956, -0.046749067363794417, 0.023791555749461846, 0.003732255676995707, -0.018763896602822686, 0.07952335049142419, 0.19691200103527723, 0.04581777134725336, 0.1299724285937699, 0.0019302940269867665], [-0.06759207180183256, -0.18808116852985493, -0.10114191903667731, -0.08114238854343143, -0.20290690131001632, -0.0477516946888837, -0.020588981415907575, 0.06039091886239541, 0.1469312217237369, 0.02921176493212135, 0.013943615811720239, -0.19245872864182761, 0.10348275838260358, 0.06626327050814501, -0.04452822375409101, -0.2029596624821717, -0.011123965026200519, 0.016509452751690582, -0.1181703979760465, 0.09994055560006071, -0.01005691097087008, 0.1606612298302802, 0.028119082391018204, 0.02342467733988366], [0.2173808204163766, -0.010610925281730342, 0.026157162635103506, 0.054655330428583414, 0.138922386418239, 0.021279557854432536, -0.10686225204685755, -0.03356855837981289, 0.24593260620786164, -0.0017172518434833927, -0.09713252915100057, -0.0764031324498376, -0.13301517916469766, 0.11052217373951714, 0.06768168234857752, -0.028284541843758434, 0.03659908907585829, -0.0051146531924973, 0.035118799531849716, -0.017479747971230423, -0.20139081431530587, -0.11939183204298688, 0.09068831731262826, 0.05140561954798841], [-0.1763992861922527, 0.3783974380928504, -0.10053435035763696, -0.11652067525395658, 0.051001938493570105, -0.0807460555662905, -0.16626982791932915, 0.11388572199369715, -0.2447920717487162, -0.09525762848180186, 0.09500626518710172, -0.2446231275607237, -0.20581570308096808, -0.10669096822662318, -0.12711293984124172, 0.21920980025433764, -0.23648922710158835, 0.16733382576899614, 0.03311009096769038, 0.19929021052911858, -0.24868687989283955, 0.06426725807231641, -0.4764654942140145, 0.19445902726815759], [-0.03683200649349337, -0.14176103236217744, 0.12978001455836838, -0.21472825006059673, -0.15157169996828815, 0.24425875201773845, -0.12763550422457848, -0.1390843375969573, 0.24023654373957506, -0.09380798991905599, -0.26705675007557356, -0.08807174620918029, 0.14527539839274367, -0.0851208760012983, 0.11401137659656624, -0.2916592209190357, 0.2474379025855665, 0.14248743394183014, -0.01821034862330192, -0.26291192874824126, -0.09393987534475154, -0.001846955246650115, -0.008217987911643207, -0.23683792422368308], [0.15042271725290074, -0.07550181315619531, -0.05759274277056665, 0.17381023732349532, -0.12623802821221605, 0.12946200594656065, -0.1137210528591413, -0.04159549518563481, -0.04819188680901711, 0.10033254218846392, -0.286752558246173, -0.1878138950213704, -0.010892200622679878, -0.03143748587811864, -0.10584644916631487, -0.052058446926298595, -0.12928294548345026, -0.0664909369961604, -0.10213037465206339, 0.05391080189385981, 0.08090264382247776, 0.14902351367208666, -0.08690259818014888, 0.008949762541247455], [0.006415964260493031, -0.18035460782686735, 0.14801016053666874, -0.276132949248874, -0.09793329580249996, -0.019958409633616205, -0.03506110121891002, -0.08229616077072119, 0.3077746970174245, -0.054132269343901314, 0.1381008122935485, -0.03150596669749818, -0.024712001186943444, -0.0005939276711270085, 0.12814511587840818, -0.16363948979523832, -0.23485582321554194, -0.06536020855521346, -0.0716799530067752, -0.05516271261743578, 0.0994765308909314, 0.057318947730743426, -0.10253153108259634, 0.07643007421375099], [0.047758743534159175, -0.04021669635279466, 0.07072539719633919, -0.3223964704033207, -0.005179987632667803, -0.01198835862897453, -0.033233718158085276, -0.04602184418553457, 0.02274168339361841, -0.3021830659830689, -0.0707551950021644, -0.1410915083101052, 0.14026398186215966, 0.18461429394502799, 0.19240788235769024, -0.3203112269322275, 0.29212319736652065, 0.048769216463884574, 0.006162961278711483, -0.1108019159484319, -0.02316482837052996, -0.02000961536395397, 0.03713528621928911, -0.39073437723930543], [0.3047629501762353, 0.029753517312681752, 0.04973559425783307, 0.0003201845114295773, 0.01344897605342624, 0.13940623318956508, -0.1497809176306118, 0.015499997633146353, 0.04753934290810913, 0.0771055984669649, 0.1516900153455743, -0.025573533015699944, -0.11572467018336122, 0.08279397755323321, 0.0765963644516877, 0.1563762157634957, 0.0037508381942456797, -0.16802929734248961, 0.28273375220555247, -0.22211612682059637, 0.12311717582408328, -0.039406034024911774, 0.2915451052855214, -0.014813217558317725], [-0.1829949384618807, 0.22857528700635982, 0.0014369518250246637, -0.05662245905154305, -0.035663692602722355, 0.16412968851219514, 0.17942056566957862, 0.12528267377715424, -0.22018891431568577, 0.12707968981673856, -0.29541876556915125, -0.051356931439710374, 0.1700571085950665, -0.05905048404563533, -0.024724938101249167, -0.13256860837964388, 0.08202166695787216, 0.14092045339368076, -0.3203619249317205, -0.05743248082294535, 0.2062050199478608, 0.09017279296821663, -0.3891666928659153, 0.039589185604505084], [0.14341216767707857, 0.1342581556158651, 0.037219045653252084, -0.15037123411565617, -0.13908469289159583, -0.019302828530994194, 0.026057593573574005, -0.13433131025543738, -0.0637751112706382, -0.15114628273400016, -0.0815940180685764, -0.10473403457005456, -0.11225115227749387, -0.06472467691968282, -0.06554208846394112, 0.03604578367509471, -0.007059683207643668, -0.18704426207500655, -0.03495851014386459, -0.03125388666129009, 0.20832282207556696, 0.20187160653769054, -0.06518555401945256, -0.1289544721194995], [-0.17368054272046998, -0.03409634617460096, 0.02986481170743388, -0.05394382136779473, 0.04148870641938885, -0.08181999800442957, 0.04606425180380403, -0.12428874645070279, -0.02093506010466343, 0.03358457584190744, 0.04287366305739461, -0.010181069031281355, 0.15517714157044396, -0.03315358695857652, -0.03607965939754601, -0.2207605972529043, 0.14151470595600324, -0.029519863294029603, -0.09408123965735492, 0.10567235576443913, 0.09884048987805315, 0.008666049965284925, -0.11479372549029834, 0.033518084074277116], [-0.05522245405922125, -0.06307510710028726, 0.24112900606015325, -0.1433233904881195, -0.06456395389778374, 0.18469798023943948, 0.13680164670883102, -0.08902035816659565, -0.16995563506258027, 0.07586840951396273, -0.14575212317870606, 0.05565527611814029, 0.051806899059478745, -0.1587447264317658, 0.022647280143906053, -0.027726590327253862, 0.2183227074952851, 0.28123101718945326, -0.031088002629540337, 0.11333560390350324, 0.09428610227063709, 0.0837467143907213, 0.08879562595508282, 0.09225669220544974], [-0.1111607124381333, -0.38535126911765877, -0.009579380581965419, -0.1695293898286859, -0.2486877967601164, -0.14805936658179591, -0.19749409394379233, 0.15213981937823454, 0.048546553235878, -0.007047473208918852, 0.21005148011881908, 0.020769010023874577, -0.07958847529817704, 0.014098820668869512, 0.2444461715945681, 0.10128714086244502, 0.045665909106078234, 0.23616384368754254, -0.13906045139015932, -0.10992001445749802, 0.17258771091795033, 0.10542132757746689, -0.02404683064672838, 0.009891159274305549], [-0.17450974173536113, -0.3220507892613883, -0.26967389945819775, 0.0720540897940538, -0.2163207031318484, -0.0797160211282441, -0.21485440708199485, 0.26781987705535915, 0.3315202515895906, 0.30340378867409756, 0.22979352935860212, 0.1976191463781267, -0.12217910051463435, -0.06422769349863981, -0.06611729509083361, 0.29665201162267424, -0.004089243179854534, 0.2791820181564248, 0.19188012462978518, 0.13027836692732545, 0.1233372711850096, -0.2587910148279151, -0.16062444058557374, 0.027194993045303737], [-0.05907173599273972, -0.06487994527116497, 0.19009604546129868, 0.06255470403705389, 0.05473826810849981, 0.021184074325566134, 0.06140411884602355, -0.026047688168936767, -0.054461180268428264, -0.048255879219388814, -0.051855197418806384, -0.1403282056099829, 0.06618956890198151, -0.14389253320399809, 0.12271418753273414, 0.10931618844281472, 0.0718115029125838, -0.057388189407446354, -0.016073304407553234, -0.2065771706887302, -0.03836812568796887, 0.03747881996215539, -0.0217567164638909, 0.043025810044091534], [-0.01727306033086522, -0.052419789273393316, 0.026799679657099534, -0.022392577292468012, -0.03673559133034463, 0.046297497876122876, 0.03262293772684385, -0.009853182559899844, 0.12186938146658043, -0.03736242532695525, -0.004518495699310212, -0.011756233846644211, -0.1807883949207116, 0.2934167414072158, -0.023259824601502534, -0.07988229378638552, 0.03426462695991157, 0.04060782728388183, -0.1098197505796242, -0.21256329973975535, -0.1429512437081995, -0.04815786275660278, 0.052953391754469684, -0.11783171277514555], [-0.18144119765037886, -0.06322211684275852, -0.1136328309672428, 0.1644059872564112, -0.11997887615322951, 0.12403349797347808, -0.2322108332838877, 0.18848553118491188, 0.21627838303791724, 0.17198956585372238, 0.2096345366240194, 0.17768136158559347, -0.06340611341594979, -0.13361633791523828, -0.01686608272784518, 0.20071728467511468, 0.1321393564832733, 0.22149440005950802, 0.031018657539048866, 0.06090259315630226, -0.1078815003463309, -0.24264368084447402, -0.0925045221124232, -0.07219471770724555], [0.2949001930593102, 0.18037308473872538, -0.10208547989027857, 0.010524471852858113, 0.07146007083754605, 0.1272392594001189, -0.25740217399505166, 0.029023420931832952, -0.012390121016714845, 0.16486930753144563, 0.3280182400575438, 0.18629141940421198, -0.22850679011387437, -0.024039336467578692, 0.01913581179614963, 0.22169691683030504, -0.02066335887291142, -0.1766196653918333, 0.25373100134717785, -0.36760025630117193, -0.00539276894257212, -0.05624875556790308, 0.32732913058631097, -0.034038853377676384], [-0.005521214659736429, 0.050161585246816534, -0.020142199317058976, -0.06576538614123525, -0.00473598238816163, 0.0074809188686055655, 0.07072443471272352, -0.07544418764827823, -0.03593044107904411, 0.025835415161940288, -0.013373394986989837, -0.014822418478515283, -0.0013602482659316707, -0.055667159058951435, -0.06397523213061584, 0.03525841428875694, -0.08760800742333157, 0.09323070809660594, 0.017384393055727202, -0.10212328732548985, 0.022642159657220842, 0.013382287926851292, 0.06097291070271713, 0.09270796574760037], [-0.029313529253171936, -0.05662101661651936, -0.048478523511007635, -0.0784870743040733, -0.05971532534649053, 0.02276019500890734, 0.001221265025506518, -0.039308560578633606, -0.05906046486259304, 0.02783090156091864, -0.040127921017748626, -0.08321253942184646, -0.012133988608491556, -0.02115948784759672, -0.08560330344773481, 0.06617410850091276, 0.06768099438837495, 0.0032714947608416434, 0.010483229512723733, 0.04218464797972629, -0.002473797781087026, 0.07130337957141294, 0.1324806787759588, 0.006439443402090767], [-0.2557914901191067, 0.10207585109890303, -0.07421165376449884, -0.24778043138289718, -0.1300387780154914, 0.07977349305929939, 0.2837179312147131, 0.03443547163273066, -0.17287385655980703, 0.21198749470666042, 0.21532948922971637, -0.32674671315041226, 0.016405990052776015, -0.25974059576110203, -0.008020732131740288, -0.21036406988240552, -0.1793372210364578, 0.12650408669854382, -0.20545660314965836, 0.22283060385951087, -0.010043345999434957, -0.12118533949434471, -0.010127231953128459, 0.11569823813618368], [0.19387445279407142, -0.07807491850563227, -0.04540627448792357, 0.14427085948930832, -0.17540232427359534, 0.07274321094209571, 0.058859056208961105, 0.02171449809259541, -0.04889237824243276, -0.029865165444672097, -0.04567462996509595, -0.020372389995789216, -0.03520928695837985, 0.0375622927735242, 0.04887960213345314, -0.36253209250717283, 0.09420558437658517, -0.1034106590437459, -0.1406983445003369, 0.1637679027126672, -0.17423409719503216, 0.06546472514228419, 0.23811888877011417, -0.09605996173459078], [0.009075511251419081, -0.30776490538820334, -0.04183458655244396, -0.1492104754962218, -0.408760360802191, 0.12152559192309581, -0.1316032723125744, 0.06487119332537934, 0.021876319700718502, -0.26293799562020104, -0.0398513465530774, -0.1616746109186351, 0.02537708321137389, 0.2432378803237884, 0.04583601148710111, 0.030598927193525208, 0.0942616862265123, -0.011233207852241234, -0.0807506474854053, -0.02332344607558324, 0.175306556352449, 0.23767562532225978, 0.1556589929438528, -0.1240474097397398], [0.38388733354573346, -6.43666516520358e-05, 0.03369507554894277, 0.0334420804272521, -0.09923420845106853, -0.14217495039445116, -0.11120614995654254, -0.20629982168016414, 0.0676765882166976, -0.22125317968296265, -0.23682921549684938, 0.06454468802779738, -0.26034709844495413, 0.1749205956253041, 0.1398416766307379, 0.1350981773255024, -0.1485791955632642, 0.05955143478887886, 0.14102440369368974, 0.2804577795852252, 0.012962973828449097, 0.21569386327063902, -0.12415838536828207, -0.22101213921152718], [0.011830524827253672, 0.14775398478491156, 0.15651734887699767, 0.14015546089859815, 0.09461418815762154, 0.06457013019070867, 0.09427092159259737, -0.48425250188198243, -0.1448211184191742, -0.03892161779608114, -0.042352324798666, -0.3631201616722115, -0.11407693008620566, 0.08557957057362284, 0.17340647073547144, -0.11157024265673912, -0.17730492317075486, 0.0023985747854446773, 0.059480824695866893, 0.06132069340931222, 0.30075242861873563, 0.04560309630406736, -0.334075246715117, 0.046631948083205976], [0.12176978206904293, -0.02122945427559231, -0.04350518803606873, -0.04900476622018174, -0.12016967335910124, -0.2734317814112648, -0.05450620290879711, 0.013924059391283179, 0.027682999565732697, -0.052849591117042086, -0.19785964554413174, -0.23712505101777961, -0.1598800089304085, 0.21482843925743145, 0.31636611104311047, 0.07015006417207809, -0.0719050876537191, -0.061464028728336215, 0.1497136832761886, 0.14367821842867665, 0.12293776016956462, 0.05950112316721389, 0.14947551222780867, 0.16052881001441457], [-0.009261333914173374, -0.14808129341085471, -0.08572110930627612, 0.06747973548213455, -0.08202886583852338, -0.16977719577892142, -0.16942916588244267, 0.03520337465671624, 0.08273055212637476, -0.0697874672156192, -0.03032440953821988, -0.08049940879189467, -0.22176383068044625, -0.09517819048604191, -0.022247145495881124, 0.021305593006037096, -0.15176969957692857, 0.06243996724692208, -0.06388852571515026, 0.1774239188065512, -0.014749642209401606, -0.13179327216878983, -0.0730442844352006, -0.13102141789365132], [-0.016541024746532358, -0.022228264668134597, 0.14876535471786742, -0.11680949364147829, -0.5339707786683378, 0.2421861874493136, -0.23563154473821873, -0.005516719233270404, 0.24065788628694199, -0.00831647436903814, -0.08101776247633258, -0.018978015579375566, -0.20442537795698404, 0.09240199993763774, 0.20677217744785428, -0.34451074748990634, 0.28107643103866997, 0.056165142788865606, -0.005189138219719958, -0.05755004982460474, -0.269618561157787, -0.059780152180256736, 0.14437844378435366, -0.17979453425973324], [-0.15351571754393925, 0.23533135976508607, -0.13414687086512372, 0.011380329425958827, -0.1267365656011774, 0.1481685903806804, 0.3619646660993137, 0.0008624051458975007, -0.0809252995749355, 0.5885625383783558, -0.09163645661847611, -0.3456876743444826, 0.013737294788931037, -0.08026447422481553, -0.15900612357592758, -0.0029011618103297076, -0.15644495987314264, -0.17646820897981824, -0.0432715787506256, -0.02906534301122392, -0.07622401472032227, 0.25604996712622613, -0.1929411439796786, 0.18595345441535835], [-0.11858783595490793, 0.09331491667000136, -0.06359392843246915, -0.040573813801780524, 0.07276096509053909, -0.09576494359514576, -0.1004548440623591, 0.1669254002503951, -0.1259752531135179, -0.15349533412445585, -0.019397586603896042, 0.18844529026853646, -0.023573990609520264, -0.13348767167397274, 0.18389532854189833, 0.06852895512396555, -0.011473579214324892, -0.018163560054193586, -0.038049161049485414, 0.13339649926692676, -0.2336880324852721, 0.08493138301609239, 0.1420878437027019, 0.20476157124014913], [0.17343216407719075, 0.09988250825697088, -0.025093609805448485, 0.2947255422874317, -0.08749014347529904, -0.03447853854719724, 0.17013574279126834, -0.1374513412687953, -0.05035366639110177, 0.024993427558563697, -0.1849569506179089, -0.329505532597228, -0.06599454845651317, 0.06729607222148024, -0.0017188564580790549, -0.15149319982404524, 0.10192449027490352, -0.1991355742384425, -0.30874481179729674, -0.10445772539968393, -0.18280830048407487, -0.17144200848941504, -0.223213816618463, 0.006780401712787933], [0.13670707287217082, 0.032805658934331086, 0.029088364924274038, 0.02267561206466191, -0.19075041138637283, -0.2763703593529526, 0.18043216440256557, -0.1305713550624974, -0.08271391059583809, -0.058925315330115996, 0.004588090391153331, -0.11189047038437414, 0.08527694594792118, 0.13945797641016744, -0.051183061605547135, -0.1740850596233696, -0.06232950884940856, 0.06114759419388528, 0.049927763874161736, 0.13523338110934507, -0.15163554948653904, 0.4094868907946909, 0.1537231444961084, -0.29286802501713693], [0.20871597877362655, 0.12677318712238117, 0.10157918890910446, 0.016866229791430785, -0.26922586991142056, 0.004752042154047071, -0.11411364677901097, -0.00848775799197215, 0.030947424678263783, -0.2959544677412434, -0.25779478722871574, -0.03516714754809961, -0.2566542552680371, 0.10182719970156152, 0.18429384528203663, -0.12275928166686234, 0.024902750770238735, 0.013184469239643682, 0.11439216330578006, 0.058152893867834815, -0.30475922174435943, 0.04259302876826508, -0.004211603077995502, -0.14895754489340612], [-0.0289163373625124, 0.05218984962004078, 0.03912042101362048, 0.035205132848008025, 0.13258104308630608, -0.1745893156399321, 0.20815815851948968, 0.0575711075766273, 0.072120355511821, 0.13280928057452404, -0.1701335189300237, 0.09615051315682689, -0.25762697255935, -0.28250861030397695, 0.4207694270640497, 0.20311366934542927, -0.048407875360191976, -0.17644418777321502, 0.2584866765572439, 0.24025393013434956, -0.15151522500760237, 0.21576759645478433, 0.08092060653056982, -0.021172536957740636], [-0.43116471310057053, -0.004022486391439753, -0.2174246554417099, 0.07987693762708055, -0.1901545909752522, -0.015994317271800885, 0.04758680618433238, 0.010586309972270443, -0.3044119533946945, -0.015817464451584693, 0.2833728521424676, -0.1374436873054077, -0.12950456628000978, 0.09770111401171966, 0.0741616102345243, 0.23159095775619812, -0.3252853831625632, 0.08104547603432016, -0.17091451462528434, 0.305518540658356, 0.021019830407799735, 0.18260818914658247, 0.2069909521968978, 0.1877660446751534], [0.3320543823381007, -0.17404026454627897, 0.22930939498998873, 0.07908317314930678, -0.17600624655557487, -0.049785366167516595, 0.029211829294719542, 0.01979465743949889, -0.17683081224176136, -0.04731985240523275, 0.12000939963464913, -0.12390662029952453, 0.02730895294371242, 0.10021086769959492, 0.35138387376698343, -0.06712070153950969, 0.013048118983974103, -0.103704540590214, 0.181830370275968, -0.08766380009330754, 0.17315833377201875, 0.09203603272055993, 0.0169057646833288, -0.06849361374864156], [-0.15246913548479443, -0.08323514860067861, 0.01083033091103749, -0.012653493330847686, 0.07930689494205541, -0.048462630247575564, -0.08706716050954602, 0.026117698790919165, -0.03421346359280163, -0.07618709392345824, 0.16113450312945413, 0.028329124867304708, -0.06672949729685022, 0.08548152314575719, -0.04367644342754861, 0.18412953419647168, -0.026530683945235105, -0.06412447964878813, 0.03821299825263821, 0.2376779262169436, -0.1121863186664036, 0.12038421759171662, 0.08686057788598286, 0.06219278755033678], [0.269553787889576, 0.14511529638094348, -0.24560700662987647, 0.1073093302204884, -0.16911877395673272, 0.036236438395671006, 0.09073425230552526, -0.17323308158373105, 0.015217154564803652, 0.1009177898538261, -0.18904474124687382, 0.07824383642338065, -0.2380992293570822, 0.347360976287429, 0.001352585227032088, -0.08650067054343741, 0.16020094131327173, 0.0911910381451757, -0.24581592129559707, 0.04305851230016695, -0.36894442545722217, -0.06950825314594995, -0.11240418915856897, -0.2860527931325195], [0.14765928161699818, -0.05421743511846055, -0.1578755077939207, -0.049304638313933835, -0.0003168384957207181, -0.39771029054391815, -0.21992530980070188, -0.019959709300693327, 0.03738536346191281, -0.10859401835629438, -0.15192890472282375, -0.05473365672274916, -0.20469457617124875, 0.1873399254801079, 0.06257368871936926, 0.10400130580549193, -0.1975099860998215, 0.38494315186908407, -0.03340423198960938, 0.01258368296788791, 0.033731884804329565, 0.03415917155265163, -0.2640704994901364, 0.21969641826978822], [0.0512886534022502, -0.04529593744250659, -0.04269408345520175, 0.15150997469993577, -0.00473778034591624, -0.363555282761186, -0.10104989861616058, 0.055031343907358365, 0.217252849861171, -0.061056477280912784, -0.007340458441303779, 0.009806722763288454, -0.4164544796082659, 0.11900451443677983, 0.03050257836370522, 0.46144778184277474, -0.0012584936854296233, 0.408948784345929, 0.1736649473031536, 0.14180271931383823, 0.1350930332259601, -0.2028708794809069, -0.19415374971358895, -0.11553599594238866], [-0.055191465215885784, 0.15215094095058304, 0.20178647656428966, 0.03332272252295633, 0.10722417446058238, 0.05984711223533087, 0.04197091791448983, -0.031081720793394146, -0.29191504381728667, 0.019011821726602623, -0.12764567797021628, -0.24681390931056243, -0.21938979163051678, -0.14172129972913813, -0.2627703665318667, -0.060284273952468354, -0.3267361141642832, -0.07004445054007453, -0.049304353313872916, 0.27941040834228975, 0.032710584811305184, 0.04493884520578029, -0.22324415012418244, -0.023444838084096035], [0.07396372956078462, -0.06139639704129855, 0.017910861630810248, 0.13892752252346594, -0.3374201604625985, 0.08742740849768274, -0.09474659238528525, 0.1521333027920676, 0.21948063683235672, -0.0728978227366969, 0.20155445844477837, 0.11674927552921822, -0.25482514040911924, 0.20959238858093102, 0.23680735855998994, -0.19457776390612824, 0.29344646737195085, 0.027891490810041723, -0.06242881853225542, -0.0488698233057561, -0.36661864216750223, -0.33849455875839846, 0.26307472509933666, -0.15563123477736496], [0.010251435162824497, -0.021686322806148836, -0.036524539864895615, -0.15775559172940382, -0.4033798685300601, 0.14776616094628212, -0.34941891664800995, -0.026981429291957855, 0.27556446298680526, -0.1999094535553654, -0.24948060215171108, 0.0019808531999846086, -0.12746499358514712, 0.0516576358562757, 0.147942631128042, 0.1092162610915662, -0.1807052635576826, -0.07374646040400082, -0.048161629948104044, -6.231763262938632e-05, 0.019103112378886306, 0.0063754032934047545, -0.27296514113594755, -0.27418811872650894], [-0.1371809327200949, -0.08386534276698722, -0.020187160599451952, -0.10722755413973752, -0.12664947432583556, 0.07805474830505789, -0.019895044059280366, -0.05548671759152551, 0.15222890961665517, -0.20871166199199995, -0.055435861276589636, -0.11894257457124394, 0.028117047249979866, -0.0010433141836401595, 0.008842676910774522, -0.044453768358703336, 0.11522289817269638, -0.1372078678261359, -0.02754468711891682, -0.022843137408864324, -0.027704000783961617, 0.17634591593691595, -0.07623213503881897, 0.06183987042233559], [0.04589518774523712, -0.06903289636888302, 0.005885608709041326, 0.011800391443438191, 0.10442293864329709, -0.22148791930879566, 0.06017281694775084, -0.11582906626774477, 0.010828193604087237, -0.18138257472901612, -0.17919684742019665, -0.056593600496908404, -0.17977877315456167, 0.41339102628979413, 0.010608694209947488, 0.4538174572805409, -0.24078989979081145, 0.1219921862188012, 0.2574236565231343, 0.08569114391993331, 0.28384707268602244, 0.28016553360392277, 0.16029057736017946, -0.029208817039950357], [0.02824218073293772, 0.005518419217716139, -0.06925257962329136, -0.03724912543836111, 0.18143926014011172, -0.052793353528096, 0.1733125361772786, -0.07537758926687084, 0.018230497085734647, 0.029598212611106817, -0.049331957916071624, -0.03743406993122971, -0.09237047128409145, 0.05674399905194212, -0.01829245073741497, 0.03126841073709821, -0.14574063018161232, -0.07956166323425087, 0.020758518004991348, -0.00742087176786335, -0.05062872456337832, -0.03569953232833039, 0.040666279046035786, 0.0842634669698974], [-0.111874107242613, -0.02210081679524735, 0.07816396821485999, 0.02675662839337406, -0.007500590540060853, -0.03605700827572177, 0.0010609508227043389, -0.008085129342432997, -0.17491694092386437, -0.057262658502984405, -0.1559671135675591, 0.10328452215731862, 0.06581188052319725, -0.06305872735723614, 0.06439022116445071, 0.19589179936812937, -0.049846116884697, 0.10394200855255122, 0.029000409339293248, -0.018935937589686612, -0.08847284399790026, -0.04447400419244565, -0.0315930013030369, -0.18526205048856567], [0.042436949700242706, -0.025738503586735472, 0.03673953735762026, -0.033538178105480695, 0.23986181947675647, -0.13258277086480777, -0.07464475637497918, 0.05641643545214909, 0.18867741927601173, -0.07939349598237284, 0.14633719160027162, -0.07336235275005103, 0.1034693699155883, 0.00603156391240744, 0.1783998832416625, 0.14255882139054993, -0.05181781367777189, 0.23485611720458, -0.08993270891933723, -0.02508965540663336, 0.14463225099900515, -0.058782648456493364, -0.0513081084209144, 0.010450431784419716], [0.03619893371997612, 0.030974584815838424, -0.05965578817508466, 0.015751481262074145, 0.050994032695285275, 0.12031924768509282, 0.026252839056930318, -0.1002383550599208, 0.002273399778840787, -0.04964748580384759, 0.10552247268084562, -0.13403379973028792, 0.044778651095814144, -0.08523170418818486, 0.1017645698964598, 0.06169296989893052, 0.017546491354433032, 0.040395096945151095, -0.026950406302428887, 0.054062183398001576, -0.003970134580963829, 0.05849632054757471, 0.004686102051827283, -0.198495318824427], [-0.041092614724459776, 0.1213993960738216, 0.11620321725086308, 0.008363929641762318, -0.01008268624850662, -0.02681985109584201, 0.050444872336043466, 0.04632301794789307, -0.07832734711771398, 0.052932011562334846, 0.09863172888011607, -0.07638918571089957, -0.01494730672338668, 0.037085187218262254, 0.05782023739568513, -0.03364280800096303, -0.04229420711929715, -0.037110827839039566, 0.030818609538656158, 0.03432952921523796, -0.001553403510094219, -0.10913791643405932, -0.08719894495352991, 0.05094592268251908], [-0.09768705704869772, 0.018108563039769425, -0.028863809736090013, -0.048178280489498536, 0.002135876909231717, 0.13410816729531355, 0.02310532656534928, -0.023653258130054824, -0.11786972743487217, 0.04097907266650081, 0.09093626829620431, 0.048590083737049934, 0.09327632857919581, 0.03812785422700115, -0.10426198472663972, -0.003595980867969831, 0.04198943867486853, 0.05768092203746735, -0.03944611522626651, -0.005069227655289682, 0.029269571382579324, 0.10170344134373968, 0.08041910414316317, 0.05170546564583694], [0.031697805014775295, -0.08202250934334052, -0.08807678525142189, -0.007348372366933264, 0.08332667064606421, 0.031628273878530955, 0.04488767482532823, -0.120124472964064, -0.11693230052050967, 0.08959070612279858, -0.002771074271540726, -0.10509503031714708, 0.07057339409735582, 0.020642892907274613, 0.2361171419606195, 0.10000003578652872, 0.027735785970438666, -0.012088764830682427, 0.018583640650951763, -0.008212173664850666, -0.11510373718572398, 0.07420176957764425, 0.0219886013995216, -0.22037654281047914], [-0.050841858010803216, -0.06629934712860999, 0.07847121461354634, -0.0035244152081273052, 0.11899254836531924, -0.12732156749587684, -0.08606288931920923, 0.08536756213795686, -0.052417708105392674, -0.08469059132965182, -0.04213371221288111, -0.060785941774287096, 0.04314622778334976, 0.08945340889254733, -0.12695353849050772, -0.023262119535477254, 0.0011395103794168986, 0.006575490765915069, 0.06666044557289749, 0.00958776849180456, -0.046384268558939, -0.088951481675245, -0.1459767417088273, -0.02968895379508313], [0.05052815165377154, 0.361703992428596, -0.07029572575723704, 0.3595602578780657, 0.16688495247624843, -0.06007467564552119, -0.2013932205898844, -0.12713778537190745, -0.08205239302120673, -0.4162568398812397, 0.17426009316747743, 0.06660411104809173, 0.011242162591960191, 0.03253419908099873, -0.23558320405091743, -0.13764418980151072, 0.20249811440262586, 0.24915635424483357, -0.010214652795306086, 0.03239045713153276, -0.0206404443453622, 0.07623707346886817, -0.11174815738878652, -0.10471973670294657], [0.01839853999008552, 0.23693163550099952, -0.039501110080383484, 0.012211708107399544, 0.007388426075127592, -0.10033811017888107, -0.10749806613542454, -0.04841673892409994, 0.09883010630873043, 0.010083853777351404, -0.042307398705347526, -0.038239656135047526, 0.09828655162236052, 0.12060082962683556, 0.14438483102870647, -0.043534345861265915, -0.16089392923393586, 0.024564415309681505, -0.13381668027707527, 0.06654473487181858, 0.052218508327774145, -0.1216433613333898, -0.06992743051651962, -0.045478918534478954], [0.013514678430079727, -0.027952081655776274, 0.052914934322452936, 0.058461476679006315, -0.1430512613601963, 0.23695645558493963, -0.027105442362354265, 0.05358344582451572, 0.062243396829150435, -0.01946978372675803, -0.24339083816575266, 0.08340087621198664, 0.22260473075604909, -0.34887449427358863, -0.14142351427001243, 0.0314478821488723, -0.19211749155683716, -0.05631021765882603, 0.15119991786892734, -0.12188886245341754, 0.13489011898887818, -0.23977959080085895, 0.06467078979612198, 0.18657323338098616]], "wpe": [[-0.07700873359149032, -0.148819304929205, 0.19990512427432405, 0.08993145551942391, -0.006002438492747858, 0.11016045993818306, -0.14787649616271767, -0.044704738039642984, -0.09865254823334273, 0.3213092616300325, 0.13772917326524495, 0.18161349251605136, 0.3016197770930773, -0.34318695841694996, -0.052499494039599644, -0.02268543751851233, -0.07776969430229747, 0.19656577550968915, 0.18109760240942802, 0.07746812115742373, 0.012213621102106898, -0.2328797965317758, 0.0062150097238683364, 0.13499501463747837], [0.027876087432222786, 0.1664543528486943, -0.05072003664830923, 0.04985014841502984, 0.36797299575517106, 0.05721740077906519, -0.2363519897381755, 0.07393671671531779, 0.005361182582737699, -0.21217080253842024, -0.011173661188336584, 0.1641888240108323, 0.049976562310546264, 0.039689311781905566, -0.07327032746467482, 0.09452731471831455, 0.0572845872775238, 0.07438391808389005, 0.04098680622456354, -0.022254212823261958, -0.12404873394184641, -0.022628768758555864, -0.24759255093966, -0.02278328256804775], [0.13384769076038247, 0.09177905268084839, 0.21710428175626242, -0.20200310837431515, 0.03488430817111623, -0.1653807738760571, -0.13619894301549243, 0.1336949023212185, 0.17716186748835422, 0.04446568071029071, -0.316330037037702, 0.3594193383436733, -0.23145207434999626, -0.17307820472866825, 0.047185203329305564, -0.001456989310855167, 0.21546798203419115, -0.49466455540530985, -0.0044250640576959785, -0.13253711702936907, -0.24531457745235408, -0.17648327347951687, -0.048655846726285486, 0.2608911515090749], [0.12506785673216056, -0.084325183506832, 0.02205349953493356, 0.052776469396784986, -0.2966831954661836, -0.13671331464386072, -0.00420593672664798, 0.011959381741017001, 0.18024956645764392, 0.09448239087855974, 0.03006824709697629, -0.10853198642213324, -0.10126622798887111, 0.23429277474709126, 0.1934224542878955, -0.019665681535583887, 0.04081461679816302, -0.042787973857763145, -0.010151342805597706, -0.032783778069232, 0.075355477328789, 0.0933528945423656, 0.02606280163427182, 0.029012405861057744], [-0.22452984801024808, 0.04245928586274302, 0.07299599333409793, 0.005150420722109824, -0.0374015053178281, 0.05159453060608271, 0.14640522083446214, 0.042283314909364066, -0.2508504999847753, -0.18315779271393298, -0.16751950119025177, -0.2561167251138304, -0.04672084697713654, -0.015944088712330724, 0.07009750609836905, 0.06004556073322227, -0.13151457180945647, -0.08157088378193397, -0.061017751402881994, -0.03940469081824308, -0.20278348936422871, 0.035161589020033746, -0.1139580328513397, -0.23708079677744215], [-0.02078904565052421, 0.030710455810352703, -0.008158481759289725, 0.08755037779374343, 0.05683732167063994, -0.053794070015286424, -0.057070759698269934, 0.007824915387788482, 0.19447637137089632, 0.03895568116192519, -0.07502495869818751, -0.1413049685142296, -0.029864046086755903, 0.29565112091858065, 0.09498204804409388, 0.19629669747883693, -0.013175007622368702, 0.12830828205078146, 0.0708530713796658, -0.1213176367070666, -0.03817770758635952, 0.1170014761797207, -0.020900980560781674, 0.1738488659289649], [-0.08067292808335323, 0.08402695155907751, -0.18616077816907947, 0.09751523193004379, 0.08367506195646092, 0.07133688608135612, -0.038594780931471104, -0.14481158251564816, 0.02827121353695733, -0.11522563063302677, -0.27809755745243764, -0.09005572426031697, -0.021013172382404677, 0.18516379309776043, 0.03718559878093472, 0.02751131723178087, -0.12494685259835725, -0.01974854127221753, 0.02423328581750959, 0.39232945327018787, 0.07126584598277648, 0.15370505478739524, 0.011242695672842865, -0.10072280570213817], [0.08011802918081641, -0.08893410501814138, -0.02349354383245721, 0.13675657403844335, -0.06067767413811988, -0.14220452506655243, 0.08280855006532205, -0.08926614147900928, 0.16907493421449074, -0.03088794809472722, -0.13787170054055645, -0.1343705974047687, -0.037776728308861876, 0.022427361267865892, -0.049156001529113896, 0.014200871127959053, 0.046905786616933794, -0.020324454147390997, 0.0051208440788195865, 0.1318410912527833, 0.055906913691384, 0.17219963533097948, 0.031682045611085424, 0.028798076476409057], [0.1549161972429143, 0.039220673377849666, -0.04862750057664473, -0.02230224791723477, -0.05305285888845388, -0.00016023027276356028, 0.10091110265628866, -0.05934843025990796, 0.14660890428958812, -0.11434244949800929, -0.05919119151984432, -0.14120906415668597, -0.16963876136817946, 0.16498961261460574, -0.02118410567379191, 0.0675420524297157, -0.052486249513700386, 0.08288680661103606, -0.008036296021021143, 0.16847779084947095, 0.1094084168875153, 0.05424488892039694, 0.0840671136703948, 0.05686008308407731], [0.08540965197307976, -0.06816911906624841, -0.2055899738302501, -0.06499930667968734, -0.00708280254244415, -0.18681452443154978, -0.06708977807136184, -0.1544507543510515, -0.009444448728363345, -0.03103355123776239, -0.018085077922320662, -0.15351091569319036, -0.008313927204760539, 0.14511754711359912, -0.10442660253670993, 0.17554190852617568, 0.04242949001335313, 0.0007996597828293961, 0.10520939843525073, 0.14112888416309863, -0.16887244912339605, 0.23334259594394002, -0.11390686569545708, -0.07801201740637126], [-0.08160956880387855, -0.04704007079145413, -0.023018848645092047, -0.030286109227467693, -0.1025659956697162, 0.0434948199932344, 0.03402142619459266, -0.11719947366633134, -0.021623439613584972, 0.03539735470282826, 0.07802175260817117, -0.26230109411401603, -0.09250727626950445, 0.09113924265249888, 0.015880094340209674, 0.059535145079530026, -0.06697216005413928, -0.08472633281721503, -0.024017886601130103, 0.2820566844968029, -0.08371309273529283, 0.1295628109167255, -0.029230191771655346, -0.011692352013580406], [0.01584163946932906, -0.03327842294373616, -0.04065949168393401, 0.14434073811072828, -0.04129024952951222, 0.04505586231778577, 0.042008598285898174, -0.19908172442521058, 0.07967848712102482, -0.06737591232467936, -0.0647539248927883, -0.1645768332299808, -0.0476607977078834, 0.08987618034831195, 0.014223596755300334, 0.1099029318551048, -0.13413757337597054, -0.02052095267016818, -0.0065804660956446555, 0.201417127078802, 0.0854530932018127, 0.02435749801826607, -0.083662577218716, -0.011598673664379479], [0.05240515682441697, -0.050933694091351366, 0.08013029240829124, -0.10076452660229225, -0.11163823202602188, -0.06543113449922514, -0.09905219603994744, -0.026929731176274063, -0.1238462573672893, -0.0023978744914357935, -0.06752748837227254, -0.20989468470645734, -0.03717793526254951, 0.09523342928569808, 0.01869460004593505, -0.030829852695892643, -0.13598294648924142, 0.21136578401401693, 0.13671742085702468, 0.1315074069146851, 0.045263070450267895, 0.06538498933860211, 0.017105414911560972, -0.04046983402179014], [0.03062715153034708, 0.038585491387032995, -0.04769570198757512, -0.022653870735565046, -0.07144841628722312, -0.04273767644444644, -0.030275618168683537, -0.08252690991925869, 0.02365999104979235, -0.224444277464986, 0.09868070295732043, -0.17923030025250075, -0.05781821882147787, 0.1189262002896717, 0.19887512124839707, 0.005776606519312279, -0.18995276044736387, 0.08359833089220979, 0.027120948881638064, 0.13345213672199566, -0.12401572298317712, 0.16975985789231834, -0.04805469348770859, 0.054453018817782535], [0.10479205062081011, 0.0430035486558651, -0.025226922460484583, -0.03052333397178505, -0.02605700797137839, 0.023538972597981156, 0.10410867217024465, -0.15533120445241702, 0.03615481671492931, -0.019871200665375517, 0.04528676118176812, -0.2581996429111577, -0.09659143901969375, 0.07173349350226553, 0.08465419207240718, 0.12611778894603454, -0.11876484204740088, 0.001845314440336236, -0.10192677684717148, 0.04206007213061396, 0.09353905021014312, 0.07195643952635469, 0.05478741639375969, -0.06920977241293945], [0.12444633513813765, -0.011544972243557034, -0.04181939671287343, 0.10540182092271942, 0.029418184344121953, -0.18006874055312053, 0.052535287607819184, 0.12929743549605488, 0.0022419899930996223, -0.011941115515920751, -0.12143408674925746, -0.20279516467685463, -0.01691950620079617, 0.1934567866008071, 0.1632569234472168, 0.053034341545470404, -0.16743523852038966, -0.046732323832516354, -0.03143516938993012, 0.1320854738362405, 0.03733830228441151, 0.0700071977811216, -0.06313183611006545, 0.19627527644122061]], "lm_head": [[0.14278903918070282, 0.32639698180368615, 0.01046021587015546, 0.15421684340038894, 0.2266203486637054, -0.18553931316147254, -0.2459922721102783, -0.20523217080773185, -0.06545669660928477, -0.2943186142401883, -0.047208447674424996, -0.19833902868045264, -0.21965993775643086, 0.13462975432057056, 0.08219463255699502, 0.17125130228291408, -0.1698744653213192, 0.2474426764484008, 0.09022303048654945, 0.1827471638601642, -0.05194353777360809, -0.10832239984546563, -0.28553982284398843, -0.12870111878977447], [-0.1701333335745999, 0.39755902270928883, 0.36347726496294164, 0.14399242040223495, 0.4528230068425927, 0.6317818857165755, -0.47242911118163505, 0.16273975559732493, -0.34058837260724467, 0.053618894279953096, 0.5504328543970688, 0.27470109460759373, 0.1668384720290539, -0.21468724580446796, -0.26871768413365316, -0.15845110503833684, 0.3736770109314517, -0.08008222493418267, 0.03955345036386327, -0.4084620430145873, 0.28005229647070834, -0.26909340436416473, 0.29838679958090564, -0.7344989901648773], [-0.015948387958370894, 0.07894286535829505, 0.28104014633059976, -0.05227839000424958, 0.4003516177537279, 0.1777183847377689, -0.22510211182489048, 0.09470826073981653, -0.17256659310161043, -0.01676405224279787, 0.2651421353208327, 0.3363969358262465, 0.41276883606064224, -0.10459017376940874, -0.24022493703055303, -0.15927936633093, 0.13575004315103795, -0.22143351931397479, 0.1950416844971785, -0.27796838303587285, 0.2106105576711601, -0.29303257308091313, 0.1289455189246097, -0.20678245819526703], [-0.4015252209412814, 0.5660050658149067, 0.19638068761830504, 0.45381395466002483, 0.5066593892597329, 0.6075769629790715, -0.5835999960840819, 0.2604157073294185, -0.5286469376758532, 0.07588917199042945, 0.5504839255892189, 0.41680927093257425, 0.30496602444751986, -0.6897028363860893, -0.27752176411842444, -0.1149210264003427, 0.4327540026166064, -0.019346464557472354, -0.0825319610443337, -0.48923493415984565, 0.4653631589656891, -0.41709747956043747, 0.3454131138300841, -0.8492275474402358], [-0.2433003034563968, 0.3318815387993748, 0.12215478423127593, 0.20060968274861832, 0.244787690166429, -0.11027121356329683, -0.1292245957480536, 0.11936862820026772, -0.1209524191377657, 0.05774325786788961, 0.013779974572933344, 0.02973375330358527, -0.20363184437257018, -0.29784147096527513, -0.1123973922264246, 0.25575532338155943, 0.03014934408703379, 0.13124981562466162, 0.3443942928272468, 0.014601456938913198, 0.039070688665472364, -0.16340265428813514, -0.1653299137139883, -0.20769561497434558], [-0.2549702809333171, 0.7953730797966073, 0.3557647582291236, 0.05055596183846693, 0.21621167129116678, 0.3905157967277099, -0.21416728745854108, 0.0753127572950275, -0.3462538755995509, 0.11248933317279317, 0.15465479121172027, 0.4596528547191214, 0.4074995155179696, -0.2640889227435622, -0.2986254207873331, 0.06522554196279556, 0.16867756849801402, 0.02041358734953363, -0.015613183799677334, -0.4091455022034937, 0.18052668181639642, -0.255214730475805, 0.2387531078159113, -0.12192915855527657], [-0.3449358689931405, 0.5936897061774883, 0.27480942674696546, 0.43119589330430164, 0.46548197248301526, 0.7516201762857082, -0.470685019265823, 0.2758646613364884, -0.5411615883858952, 0.04100740454766456, 0.597065898953769, 0.5298313183715804, 0.3613991067924827, -0.5660219802970976, -0.24808102473383145, -0.09355903913339748, 0.40876435469650074, 0.015047250456061664, -0.08632247567529067, -0.464971791300917, 0.3426006761318254, -0.4206493419746051, 0.3359131847041708, -0.8637317902650915], [0.003634082309838781, 0.22946518575864905, 0.20253922225736742, -0.060399614234465215, 0.22341327214935922, 0.4393806613001311, -0.5049221926785791, -0.08841336979825148, -0.26543799772647114, -0.13467322714799074, 0.16156870199346576, 0.14861207998654402, 0.10568498401809891, -0.047557875798384545, -0.10208771387216403, -0.3232138772500342, 0.09304015454994602, -0.19019561250114922, -0.06929911955558385, -0.313720102566672, 0.12175854459400089, -0.1250939218423921, 0.12569482309339836, -0.49512041045333316], [-0.13167609285610055, 0.34764976258208025, 0.2650340003568352, 0.39183780046204814, 0.5920861269319564, 0.511443625092305, -0.474504225590787, 0.27976707148134583, -0.369701030478134, -0.03400361464522021, 0.7172469654005653, 0.29038839524353166, 0.19764773156809318, -0.48582818700311153, -0.07692401425565147, -0.15937751620265134, 0.21628862573767696, 0.10259680723778533, -0.0032780826718446423, -0.5363232382676966, 0.3354207080980275, -0.3305797548909405, 0.47041054291628287, -0.5923953158217888], [0.15438128478651236, 0.07780894490494214, 0.004774072601907176, 0.09245468801321784, 0.11409601272322284, -0.0647497061954897, -0.19760361291369266, -0.05365125088511585, -0.017404285991289684, -0.03509914376334005, -0.1317550384673403, 0.01515532508603884, -0.1550679644493373, 0.07333747824859899, 0.028967855257656962, 0.24316350916345797, -0.1589040486091567, 0.08422708828190878, 0.08754279155245906, -0.00742552229336089, 0.06466166471883508, -0.11930249888266449, -0.07207865248463935, -0.1267462540546338], [-0.3198405400139606, 0.5350756915116642, 0.4072168522854828, 0.3103304195467758, 0.4533469376370825, 0.789124569674443, -0.47273788042132636, 0.4015398917898852, -0.48376132597724547, 0.059143006114626286, 0.6480618991959252, 0.35149864659949215, 0.37197599264693587, -0.4990668727856287, -0.35424723824791415, -0.11089651426836382, 0.36891434069553625, -0.10290362498627321, -0.03520425308681715, -0.37607931622945623, 0.3031409092672893, -0.36411421277964917, 0.34536897162375424, -0.7994568151581762], [-0.3456059546816238, 0.5749276911861727, 0.3378821409821747, 0.391853654685209, 0.5167884231897485, 0.6930116163986471, -0.5709198863474206, 0.20195314945247023, -0.6012046004729119, -0.023040986031920445, 0.6358295798038125, 0.4332971267281175, 0.32708063993773373, -0.5845436021728266, -0.2125987025685583, -0.1331624988284855, 0.3620718060101918, 0.04798093546733972, -0.10197631627809976, -0.5094153555083111, 0.2882682560841024, -0.4494831325529802, 0.4639106074281362, -0.564702937359156], [-0.38303025941804447, 0.5249277922241509, 0.2891625784476067, 0.48854344895479734, 0.4625693449503006, 0.7396377109942471, -0.6103823459578486, 0.2662108501039572, -0.5525797983563382, 0.02165293686283079, 0.566825899253923, 0.4596287872706753, 0.3265112315389192, -0.6267790837055094, -0.20723254021638654, -0.1593454773134898, 0.3896619820903518, -0.004346136275171288, -0.1310266108844984, -0.4498792333995749, 0.39629816897465786, -0.42733904122080746, 0.346353274037475, -0.717614210298566], [-0.3222442177201463, 0.5452669956067505, 0.2859916006601703, 0.34144792200447277, 0.4470156486818433, 0.7314732523220958, -0.5134388748263927, 0.24166479453167083, -0.438988650423423, 0.019741001384317503, 0.6854054212178273, 0.3578327178472776, 0.38090576674251136, -0.6109261898309543, -0.2318120272594029, -0.05562827658701096, 0.4137110461114132, -0.058288217519877214, -0.09918626646954014, -0.4478393550840457, 0.26997345465482764, -0.46943753711468184, 0.3211203883472954, -0.7572189759306973], [-0.2953222301637993, 0.1636536359815478, 0.24900395965249977, 0.09602504867612677, 0.5208539882325924, 1.0924097580223142, -0.16541725615058925, 0.394676234866283, -0.18210820325355903, 0.05104663800864956, 0.2837627359992992, 0.3400550051592598, 0.2995576142695274, -0.3057069826211381, -0.13643093005609422, -0.09302117747765483, 0.2368563606859801, -0.09503000927479464, -0.08685368557529322, -0.3070706670084428, 0.2300804034429725, -0.5070035562077774, 0.4391711653919658, -0.47196057758497056], [-0.34565786147758853, 0.46144882519354335, 0.2837691497646599, 0.34039471873098776, 0.4946324597120632, 0.7498976992711913, -0.5339711459711358, 0.3094402904554866, -0.5246623200353602, 0.06335499473252705, 0.6704337257000601, 0.48766413480454884, 0.23448927798877917, -0.5699367535710104, -0.2603938776063816, -0.12647794393896558, 0.339094572275657, -0.0024615859537832356, -0.07343086220917258, -0.3999083411902563, 0.29252184506587126, -0.506417522764444, 0.33100256497805125, -0.7933738889923139], [-0.34582821610676096, 0.5765340564805932, 0.296436489747064, 0.3854892263228503, 0.48936048805187515, 0.7953637744919053, -0.5765334584311154, 0.23190510899883762, -0.48700937679440737, -0.07048003847309989, 0.5683109679643643, 0.4135045724164773, 0.24457806783376632, -0.607224572138506, -0.30957962352648244, -0.08191550440373585, 0.3389769543036669, 0.028815639324480176, -0.056738207887119904, -0.6316171882197043, 0.3982813486958698, -0.31753467721526707, 0.27864663893441366, -0.6428217311827824], [-0.35574654095687336, 0.5178492618686269, 0.31156227914731593, 0.3357653361612245, 0.5725693966156152, 0.7697067066001775, -0.5241715241506946, 0.2368717419098959, -0.3592992803747035, -0.013538553140576092, 0.6948690849450908, 0.3537685199730986, 0.34761969084496086, -0.6105534979755876, -0.19465526273202913, -0.06206650094798094, 0.3711669096444247, -0.044490113135799474, -0.061557227618145124, -0.444904892586047, 0.3307749881018591, -0.4318088031362088, 0.36475470528466436, -0.6385635139227912], [-0.3955103797354059, 0.49577317080116456, 0.2800056261044347, 0.3930701729997305, 0.5124254140888248, 0.751073341585092, -0.5588087521202084, 0.23020294253968795, -0.5415303448431865, 0.0669451447381475, 0.6481509443946317, 0.506186277019182, 0.22083433883194065, -0.586895082343074, -0.2587190290440647, -0.14585662850920128, 0.44405616242895507, 0.013228382349422337, -0.06321344851313973, -0.35716492989458837, 0.20752863092408833, -0.45905063879228647, 0.2706368233747523, -0.7522530580922241], [-0.34373835232362676, 0.43629375533413434, 0.3092682717371309, 0.3529720709909858, 0.5926225745657527, 0.7023349090212782, -0.4582713172211297, 0.2592862275433556, -0.46228455489067694, -0.0850976879530124, 0.6820766146083014, 0.37885502116410963, 0.2988841301868927, -0.6706647033336713, -0.25490576620230493, -0.13600904366396355, 0.5665483753965104, -0.04029456077710245, -0.027012994026136418, -0.24277535630380428, 0.31108173700898517, -0.537739466060349, 0.4013357012784781, -0.8096398199877929], [-0.2956297701645963, 0.5254831759344991, 0.3394329411490419, 0.31716957130212214, 0.5453720482126309, 0.7760320497087971, -0.49285721804175536, 0.10068435720689951, -0.5715137332959417, 0.03832131112169123, 0.7543753893178071, 0.5801338611673215, 0.30567243522386717, -0.6137454690875725, -0.24532039319064738, -0.035865224678119326, 0.41392458262597215, 0.03999225943822381, -0.08989037088827086, -0.362020865944578, 0.37921685285194373, -0.4270340337384094, 0.33582688590354126, -0.760520072469576], [-0.12508553423224053, 0.16797117799378544, 0.18088687320323535, 0.2548136220894495, 0.3639314022150387, 0.22490405315853176, -0.21602462498000066, 0.21399369281921468, -0.1233221308170257, -0.12037936835924186, 0.33378113247905844, 0.2490990355604577, 0.2404026685650792, -0.2919740493764923, -0.07078530590981356, 0.012368748993633116, 0.22668886645903524, -0.024572490999334815, 0.1545487507484456, -0.26524326691123723, 0.26951124916503055, -0.37663527439012634, 0.3390732828555274, -0.3348328709254466], [-0.19555081825376436, 0.17862565012974216, 0.23589002572278986, 0.19218023857052163, 0.1579709472036211, 0.1468432496257772, -0.16240522221264136, 0.12230561678396565, -0.12787024846147826, -0.10011792929465244, 0.30874118156485697, 0.17348800359807415, -0.14866263632520263, 0.04697917168980476, 0.003306734638172916, -0.10296895311900621, -0.03962160617841985, -0.13718849468548497, 0.010399082676530272, -0.18998464928158038, -0.015596526512882193, -0.26161034649678716, 0.13294159801560654, -0.024113428672081546], [0.0609116666936143, -0.013234595702226013, 0.14361564296400997, -0.040153914585376545, 0.06405206929902435, 0.015065553356850602, 0.038275272372424986, 0.11401961644463902, -0.0030424350048628293, 0.14834831819841934, 0.07291738015557414, 0.34433910090929826, 0.11970584257704873, -0.13764463868181068, -0.14195608782706373, -0.23408865672223866, 0.2668287120332123, -0.4313018851469253, -0.10025095478258876, -0.4097701904112582, 0.013626202981835374, -0.23056574775067748, 0.15130826720064555, 0.11774226360811352], [-0.17218401209382614, -0.03775802954497951, 0.3308202178892949, -0.12121552633093773, 0.3159222078921118, 0.20323585596434243, -0.12455351616336532, 0.24562907271530604, 0.019446518452299163, 0.1396801421793395, 0.11046444632988109, 0.4398774514015484, 0.2649882119815919, -0.3979164956150291, -0.22149502800191911, -0.23457700439304138, 0.17510208169000469, -0.23235169828084398, -0.1233681830197316, -0.3424658670817514, 0.05949453015991531, -0.4466237934214158, 0.15130609731814304, -0.036115493245670274], [-0.09881020587119782, 0.10344586560429375, 0.4484650994129301, 0.05241510633603227, 0.30163393196643457, 0.1625244594657419, -0.16702124730638962, 0.2058581582782067, -0.23294536721523448, 0.06534732488567987, 0.15068019778047995, 0.24153707398154828, 0.24572515404649667, -0.5273108440752129, -0.2426305318608152, -0.1929003230021224, 0.23704883545554223, -0.2480644966193772, -0.15369293596921396, -0.4005428216584374, 0.12747045560944092, -0.2473283132218014, 0.3906386528168257, -0.12619482431695989], [-0.08174848562577901, 0.15656099542377988, 0.17643314436374424, 0.07094178443656171, 0.4194420361160924, 0.4703415133855419, -0.3560305885670881, 0.1855486186318181, -0.26952862699608165, 0.13292662180769554, 0.43299026721262723, 0.5499599924433203, 0.3993458289394047, -0.2761113072376274, -0.27594279317893894, -0.1420029753174695, 0.46677121669825594, -0.39306720879136886, -0.06594361549502963, -0.25563794890852215, 0.27914048578750184, -0.24733536177823442, 0.15142101172172318, -0.2939037433912093], [-0.20830126142683347, 0.146584316582825, 0.21103124269775994, -0.033745631024100296, 0.17044151159758902, 0.19503285124588765, -0.21932122267792103, 0.10142438101358227, -0.12105687331090864, -0.0164752100077499, 0.04915250500044682, 0.2894451981874777, 0.2675674959322118, -0.3890137646883438, -0.2912157474481224, -0.15065084821245073, 0.20674916414813735, -0.2860605691189095, 0.06723796526100034, -0.3943938547741926, 0.13797625535795732, -0.37199729906230616, 0.14743651536778715, -0.04798889004449971], [-0.1086299394139464, 0.1220304497291869, 0.09171022500765473, -0.1951989304137654, 0.18411140235977588, 0.1995971440963705, -0.3001975206889749, 0.15047959422665982, -0.1114943712164976, 0.09158173874397309, 0.11583818764582127, 0.35633153191690603, 0.08223880014862078, -0.3405283353102236, -0.47007028328555456, -0.23288656512996764, 0.368270245204009, -0.3293967337293146, -0.04007977319855718, -0.2500505599225517, -0.048250618343026346, -0.29739405019103804, 0.2238995172360246, -0.007221523282198941], [-0.06794685337661778, 0.08410045530538293, 0.2811046967765137, 0.0070512101409621495, 0.29771781117313817, 0.34864343380059937, -0.19542386341571844, 0.2061541231882891, -0.29231580710788996, 0.01528031355779309, 0.5692138438942659, 0.37162487240694453, 0.26747347882969286, -0.4678667338381687, -0.1267892468747782, -0.14513598633409266, 0.3252557233855675, -0.25663863070742265, -0.17115677996350523, -0.49153205993084353, 0.20431147662098653, -0.1739804972851606, 0.20305989767343913, -0.3673160892663785], [-0.08587201060706334, 0.1440385851797837, 0.2615817411400905, -0.04531511710997637, 0.33304364323731966, 0.22766238219746548, -0.2515472614042907, 0.15222795490258872, -0.2142234881125547, 0.019737751177868943, 0.15869341179880717, 0.4131834673326865, 0.17053081678351223, -0.3032304514436559, -0.22156682346028947, -0.301697735080078, 0.36025317849543204, -0.4127049375208565, -0.09575128042366372, -0.47096775124731055, 0.10971488535069804, -0.26120279088414644, 0.2000396995576615, -0.22625725458465087], [0.09824009038149523, -0.24430156747128348, 0.1270677840602955, -0.2304384767289974, 0.05028527176270271, -0.12967472311685807, 0.06524002132867715, 0.22203412791223925, 0.12333742810044497, 0.14089358765321205, -0.02033783214312027, 0.4548829757839719, 0.08445558863772416, -0.3569312361071408, -0.29035845302556684, -0.27269383129374003, 0.28399148693428233, -0.24541283397698319, -0.09780069470687604, -0.20396642990621908, -0.08110439299042682, -0.1915375631562076, 0.07948721912280261, 0.20686178414168926], [-0.056698768932973376, -0.13571554374701544, 0.4787803486254917, -0.15122944349213716, 0.28421685962261456, 0.21085613691855176, -0.05621956672503454, 0.19592200774744545, -0.41494503792426835, -0.04695851021292126, 0.27421262930545476, 0.2601869323895219, 0.6041712330981441, -0.1460591432540132, -0.25447650764963536, -0.3152375080543073, 0.3519916240169637, -0.24779046120708048, -0.13717447596643845, -0.24578265592216983, 0.31301795338923144, -0.14004433434754268, 0.22897492997577124, -0.22649286192121676], [-0.2734442018566583, 0.3846252179350587, 0.2949783492187469, 0.163927986170505, 0.5025060223393006, 0.7065627128053255, -0.42836824528527345, 0.19050306381522042, -0.46668643073028265, 0.02917509228011772, 0.41409176817573506, 0.44234285378607036, 0.29013037693145627, -0.5397107839650359, -0.31246136885270404, -0.23173054402893062, 0.38538976905048405, -0.12130261251978429, -0.003020815719077722, -0.3460792653423535, 0.19096813782852945, -0.5063157883283285, 0.30101264660224547, -0.52805029775345], [-0.08209298474560839, 0.05093253125176583, 0.47813392266674526, -0.014773928256229047, 0.5142745262999882, 0.22135220425088395, -0.21686717086587823, 0.15017165347208622, -0.365760153692482, 0.09327559233483286, 0.31284100951768884, 0.25671899367214135, 0.43313533354601247, -0.3116216353255279, -0.2796619064577294, -0.2530481420741047, 0.49789474866808386, -0.2116335477990911, -0.1563723268140282, -0.36109578880455534, 0.22150755043542272, -0.34688138528091983, 0.0792135047011377, -0.2533226366097337], [-0.08085562232682729, 0.005095064467287894, 0.15650007166720228, -0.1235390697659939, 0.312134126775934, 0.07107381636427422, -0.22493932922132065, 0.20082536351479136, -0.14073812368148902, 0.17645404334709489, 0.20711540989686042, 0.3549955024393748, 0.1777108970745514, -0.5455213192872697, -0.22484684738166916, -0.19091480731831467, 0.2958006345985218, -0.16815539796564366, -0.05274485202370537, -0.29554407490794743, 0.010481698170913586, -0.23281178110886863, 0.12655860528454024, 0.012062804110864455], [-0.09913416825103302, -0.003493146617160968, 0.14395809611121438, -0.1780048862392849, 0.31268073742859914, 0.17217219497455952, -0.06776040451022809, 0.27929854546054034, -0.16137905243717096, 0.2207471649990849, 0.3091663694600402, 0.32156342879603933, 0.12574737358005098, -0.30107045900484936, -0.17483864323205517, -0.11287310140157575, 0.28887866614601687, -0.3222436488936886, -0.06489444684160266, -0.22012969373865118, 0.04546785220158083, -0.4392193210824411, 0.1567442500441242, -0.08683876371198325], [-0.11656664611690792, -0.012436937218530245, 0.27314917738873107, 0.04872197230062228, 0.2918918261303409, 0.14998258016257537, -0.17174635799317992, 0.21496459757718253, -0.10196049222440268, 0.15728552039080193, 0.0708436183975181, 0.3898502854186129, 0.2476854170657514, -0.3859831357646978, -0.24182770061961487, -0.1821470518027449, 0.2573513565316176, -0.32997414943112596, -0.08932414638139562, -0.2946228742721841, 0.03476899354035592, -0.2459982155005491, 0.1831597897770021, -0.04611862256715447], [-0.008269294803265428, 0.158649182121812, 0.33429763386592803, -0.089167147473465, 0.3243244163441289, 0.22225368345946792, -0.22541973846807054, 0.14409822955842602, -0.22362002310655876, 0.04066776701634549, 0.20937489243656351, 0.3639197902056184, 0.33412232876170805, -0.44734663456433427, -0.17222643042201805, -0.00870457724978333, 0.2723454374424975, -0.17096221005700957, 0.060166375107941684, -0.4340701476726323, 0.11687290337349282, -0.3023716110738088, 0.14501419832850881, -0.19722584449608466], [-0.3404528218338153, 0.4755271582458539, 0.32957549858908997, 0.35326712046347175, 0.5131269854268969, 0.6764984600683781, -0.563808381362471, 0.20830882417237914, -0.46999745296538975, 0.03181226619399168, 0.7501123572372421, 0.4162089777587746, 0.2761191168608558, -0.63175916352966, -0.25036146474126403, -0.17369989736570965, 0.29325179061425255, 0.008426269657430045, -0.13359754485065278, -0.4327117790423306, 0.2712821079703484, -0.5095124436580636, 0.3174194858789816, -0.6635516031016495], [-0.16393615549670518, 0.184551158184472, 0.25005593799406434, -0.017833535892313134, 0.3890168848792046, 0.32571989682710367, -0.23964354512373603, 0.1533431184535957, -0.28322812382741985, 0.011950474913659156, 0.37426588912952863, 0.40826938641705, 0.25537444194630365, -0.34411119708026466, -0.25205017678378494, -0.12127736147369704, 0.33505036487358053, -0.22080521371504552, -0.18212802225881958, -0.310808811952419, 0.19509553759238793, -0.3027921616797555, 0.3638570141087028, -0.3080809879806719], [0.09600636255522262, -0.09796566648092232, 0.21887438778768142, -0.2570595622783986, 0.24593686959252747, 0.21733567356443176, -0.014021087694251243, 0.19994308719550405, -0.07620458734188973, 0.3663935107021064, 0.17396911920486266, 0.42808897099126597, 0.11776196762292207, -0.3182689551678972, -0.2410380421565947, -0.22122776908937558, 0.3517181497340577, -0.19058612425685273, -0.1495256620085935, -0.1692605293591979, 0.12766265728644735, -0.27292414674107124, 0.1899648951915276, 0.04262843662723143], [0.06107647577695555, -0.05690646306192525, 0.20425657602513803, -0.1414682211684439, 0.0943581344062851, -0.13000454757531266, 0.06499814153086929, 0.18924162894499075, 0.08812930708302916, 0.15145374161740283, 0.04562014245911645, 0.3841734376524934, 0.21913591080443007, -0.300074559359346, -0.31348030307211955, -0.2569831142129076, 0.288974203914943, -0.37798050632177377, -0.06012371142326628, -0.40859879783821623, 0.06572664460202773, -0.30858800392044883, -0.040466129992427435, 0.18914745093079446], [-0.20452256565657528, 0.24152178516115289, 0.38905999531220464, 0.20933246633552932, 0.45355036299626494, 0.5851518029521869, -0.38661892447701046, 0.15399754975117463, -0.3185485487837805, 0.054957221467606655, 0.5636313023304381, 0.42271287818502157, 0.3033356669906768, -0.5137855926352405, -0.2750851628467649, -0.1512241719654323, 0.3401015164862634, -0.18517542340597595, -0.12878512480599336, -0.5398926798957344, 0.15866861368816912, -0.4276894145639454, 0.24068330462312365, -0.7386181068071433], [-0.25062116481964, 0.23272237969389212, 0.3551531007235696, 0.12153482858200441, 0.4131488647343497, 0.4472609344587714, -0.358618105770306, 0.0546192591699306, -0.30290879020022743, 0.02381722800852772, 0.43097867388251276, 0.28813276127839577, 0.15436755798127416, -0.4851506992923242, -0.1295791468499509, -0.05234300655522475, 0.22584501397100576, -0.175177511173026, -0.08810492939447816, -0.3858351390477202, 0.23841234575532788, -0.38462263910097405, 0.31220220112741404, -0.25428368437383553], [0.07959422641298246, 0.015132644094063523, 0.13399175771054941, -0.15476065254633858, -0.00710801126839046, -0.015293295701572536, -0.06226217534130564, 0.2024684525427776, -0.05928247138392289, 0.16337136445150047, 0.04616843429282394, 0.46045603932120877, 0.15081684449250202, -0.3997843279502985, -0.25575685307068835, -0.1809944645656607, 0.23843737714444196, -0.36635001475383056, -0.06228996187852587, -0.39943201890407637, -0.08484439643377907, -0.43009584672868917, 0.017359953639323914, 0.10636984080564904], [0.006035323447048715, 0.004969483336724407, 0.18819816569613998, -0.1682995213888782, -0.011670510248424108, -0.02121891847579162, -0.027865052668711917, 0.17053563895284674, 0.03767206762065393, 0.15681429024990592, -0.06745254575908259, 0.43214554658702925, 0.17610243334693002, -0.21462787082185117, -0.34202364961699244, -0.26679042847850154, 0.2917315106428876, -0.23664338799506535, 0.028205718973120224, -0.23549824835572125, 0.0019722781636363354, -0.33999016091306955, 0.008978541090050095, 0.06237415854711339], [-0.3008364013387842, 0.4336100390969835, 0.1887504181345021, 0.2888928584727699, 0.5255773166650163, 0.6611256981776731, -0.5044144845669029, 0.317107848465437, -0.3916033629747746, 0.03016915072093326, 0.6485906960985304, 0.31314433927131, 0.2329329926667804, -0.6953311111353928, -0.2965609061999947, -0.114897929331777, 0.3110492445939681, -0.07909273776720883, -0.023458927902572754, -0.4687042110111084, 0.24072976349098818, -0.4726743885307885, 0.35351428228913917, -0.8151717361531624], [-0.40775631161793635, 0.4993302178113011, 0.3072166647250993, 0.3209312176316332, 0.380888909689815, 0.5830610670768334, -0.4488202575413951, 0.2835518183605221, -0.28466235363536446, 0.052305327213202205, 0.6660469077943817, 0.37385544957100264, 0.4204193276408847, -0.6596476590025564, -0.2891548359203469, -0.1365542707950889, 0.2488710326207627, -0.07478908786492977, -0.1544715377156972, -0.5010578011770378, 0.29489983057552244, -0.4493348685962859, 0.2862207164644809, -0.9554053996110343], [-0.0416081650662158, -0.22130593005521582, -0.03933882392589551, -0.08153526146143641, -0.321199170569993, 0.11786904712799087, -0.07649852934691319, -0.11284031598463824, 0.17938857762546517, -0.17568147719987653, -0.2674574152908889, -0.13892744949100144, 0.0045550121158616065, 0.09833412798163639, 0.08784854308683498, -0.1684267646828682, 0.13346835524349349, 0.03614330231041936, -0.005090786589553028, -0.10415618567820314, -0.026829768721153373, 0.1462494134863744, -0.13245998843878792, -0.1304973959218824], [-0.14389110134264424, -0.0392730959633592, -0.0414299657825578, -0.16070186356853605, 0.1709586763262198, 0.1174591369170874, 0.07319911543839881, 0.01923425892350385, -0.0357615486903032, -0.10179297616100685, 0.13000363829605865, 0.0744969439383028, 0.254691051763256, 0.07698957799003225, -0.043701006056081855, -0.08036008213515554, 0.06176019651994823, -0.035259642121513966, -0.028715207102991722, -0.16090683382252027, 0.2298561568322853, 0.0978696432181527, 0.2613620048652129, -0.12841800031284903], [-0.19549046704931874, -0.15299179673902114, -0.031819897760057135, -0.04197286140901257, 0.24052661800444233, -0.057981623637355, 0.10177183781765753, 0.09776056468398464, -0.18911220993023872, -0.031685974358519275, 0.03957631680736995, -0.1698703404686189, 0.0913169821599106, -0.13598064836003995, -0.03160476075123952, -0.09148981230836709, 0.008605355313908153, -0.08894538156739931, -0.10424169691419408, -0.16180059122756024, 0.16044935894672163, -0.062447223974941686, -0.019303142875024902, 0.03858864148665357], [-0.12314130214658955, 0.01779546319296931, -0.07181067370813793, -0.0016282953701284434, 0.08150658798823643, -0.048477995789479915, 0.39793216601105574, 0.05948316869003905, -0.20553585251412532, 0.1446204163233975, -0.056184927311724836, -0.06651877475766792, 0.22180838571078176, -0.25877379483212404, 0.06479399693988104, 0.06042925831269225, 0.045201890539983795, -0.2426773492731541, 0.06647109712686436, 0.008019787203735147, -0.20017588431368522, 0.2902879575197744, -0.09785018415680544, -0.13288340672726928], [0.10015179552966252, 0.004058808296514624, -0.10094120558400885, 0.10696468105322757, -0.25645803966484926, 0.039218070725007305, -0.015549178054752864, -0.029968886778793603, 0.04664964255470508, -0.06759531190817641, -0.03270507327036261, 0.013695837209583988, -0.38790297385235484, 0.16183026874540926, 0.170853302157134, -0.08622248451019823, 0.1191975847738563, 0.07094643125911297, -0.00020077818971760462, 0.1032961031473657, -0.30442051413921994, 0.04515619305114949, 0.1837764407015198, -0.20832678906938312], [-0.1347710271378707, 0.1859100589947563, 0.0593568897552704, 0.04394023501908149, 0.04832212922369752, 0.05614865501016259, 0.09801495840337199, 0.07892464649216856, -0.2294960781061071, 0.09324687333588375, 0.05242189013093622, 0.0731434214431719, 0.2051779468802461, -0.014866608844248085, -0.05519231141748766, -0.1509488002521141, 0.14443971102027148, -0.0017204001776492152, -0.02079183256643401, -0.056441418307322716, 0.3598325427102198, 0.01810100930658035, 0.08719184472594715, -0.025732030065831874], [0.07080971590271563, 0.030545532879401437, 0.12170491950894377, -0.08779568685285072, 0.3012923351066651, 0.004458777150061596, 0.128602894349562, 0.07778123580944576, -0.06834114559533123, 0.22488756745232047, -0.09252929919545655, 0.08257791688276502, -0.019203924836184622, -0.316386082806543, 0.18195123813848527, 0.026999806931482993, -0.007766867638092192, -0.18998352527482817, 0.15148652406258084, 0.04634255513046965, -0.0372596308835332, 0.017408503892416674, 0.211137283965468, -0.0511137679147393], [-0.081377887153221, -0.3720573493329825, -0.2199983158046221, -0.0630741639705027, -0.3003134774795838, -0.03201759002686694, -0.1729462303570971, 0.29101812805576854, 0.4192659011285971, 0.19599755767505603, 0.037094529231882147, 0.17777124127849078, -0.12491495820496516, 0.03961527672274739, -0.041974987102269636, 0.28545935913603226, 0.026665371578225423, 0.1341790162316282, -0.06251647678543144, 0.04085705288591887, 0.2820126519348973, -0.3280835001042305, -0.17618939443199605, -0.16060765610598354], [0.1569252610356449, -0.1680033509023626, -0.014999620635814134, -0.07265821866553866, -0.213087062456371, -0.07533621984636689, 0.04449210331987552, 0.002243829926646994, 0.2051905354154045, 0.0038436078757720722, 0.047855725680605136, -0.06621217716638451, 0.06270028376646028, 0.11443846528085262, 0.030313932117007857, -0.15280445722153949, 0.05031002564608058, 0.0973521449020485, -0.12331063180251144, 0.03470482952738217, 0.021242471400590508, 0.02204882335898057, 0.15043762662818932, -0.06003251191908789], [-0.1158716353948638, 0.18606278315427344, 0.18860821685171425, -0.021041142695080926, 0.5690451252084239, 0.23909890470779196, -0.23178193937933894, 0.03405909210210237, -0.3744771430238794, -0.1104900359476417, 0.4498798499990593, 0.2836784360710196, 0.34379994036482964, -0.26448884053486077, -0.21533123755211314, -0.19726385523088494, 0.3754717599308823, 0.11759894161448539, -0.14300416159497628, -0.28117840468883903, 0.256439389022975, -0.03934104337164323, 0.1580590943809993, -0.2811634913114471], [-0.22545999711189874, -0.007906246576059598, 0.014230650545615219, -0.051472419967839536, 0.005997517184088918, 0.23617337183765638, 0.09627791644400407, 0.2352778746734175, -0.19281305119828546, 0.037009803990969085, 0.002868379983651863, 0.013618489734682876, 0.20609301764193175, 0.0031022950038671637, 0.052352422616713724, 0.03516873745665429, -0.002524343972947073, -0.03821415129208427, -0.19275379377646426, -0.16174350769686724, 0.1858315563336141, 0.08611314629062906, 0.15131945853944823, -0.20903199797513125], [0.1569325102762715, 0.011167363775771762, -0.0013018641096907992, 0.09616325928384464, -0.09344435357890035, -0.06151564028411819, 0.16179373785369702, -0.08840272265904857, -0.20586074708140525, 0.05948641678721625, 0.120280355607924, -0.12026499842394357, 0.13206726991786702, -0.09978611910345309, -0.0988144017256679, -0.18573638829874448, -0.11432610740634021, -0.0061437431418368245, -0.08408791580459514, 0.08683060588635642, 0.037433903782642934, 0.11578358493371485, 0.06476663529493222, -0.09729446285239894], [-0.34415824977690745, -0.1849925514270369, -0.03158322402411903, -0.15890687032520737, 0.15832830525202424, 0.13041978469554733, -0.0017120970484247203, 0.1308181613251247, -0.13576793005798568, 0.15877268518291185, 0.46724028811190965, -0.06566960819152833, 0.11705852196260101, 0.11058663193532614, -0.12980327849181555, -0.045661226965894246, 0.037732825220526726, 0.15131504191970924, -0.056247396231784055, -0.06842887263737059, 0.18071366456770727, 0.02401106830165337, 0.12350545889043793, 0.15302040423939195], [0.05593209808331626, 0.15332429203985948, -0.12271683678584139, 0.1690770843834658, -0.09190733344819306, 0.04412194081081227, 0.2296098503641874, -0.09949296349789348, -0.2537556016333121, 0.21924501504246477, 0.030741842985295514, -0.285812113599353, -0.020834666838019728, -0.025105863073360428, -0.0345289448480589, -0.04869526621016497, -0.03901796538519199, -0.2162707187426094, -0.3805919275619973, 0.06157113845505041, 0.0044482050550060746, -0.12054458694077991, -0.13432157462274955, 0.24243256180440886], [0.23835720507588676, -0.1412692108174238, 0.008227979006769671, -0.0587152316323654, -0.20462084272657163, -0.005293264619678704, -0.04873703889032532, 0.0652727551470173, 0.16246650527197495, 0.017855424657001337, -0.01623170619318771, 0.014039445096980107, -0.19766056592751016, 0.14592664072241435, 0.07195947514096407, 0.10824022223556673, 0.04774641430867834, -0.19552693777973618, 0.1402882392200093, -0.010245047914016345, 0.06688007208325901, 0.23478257657244123, 0.36636528922357153, -0.18890449131257037], [-0.0032589304622618665, 0.046072517258810994, 0.19000737779319876, 0.06963678864219267, -0.054386605442713676, 0.07506055860096601, 0.04543162326113421, 0.15850499855156513, -0.28148404006786326, -0.11562079827380153, 0.22879151198855954, 0.0764866177943611, 0.20163034051295092, -0.15820597947069356, 0.021070051644552196, -0.0635088221954444, -0.12423406572096392, -0.1131798652817467, -0.12255080757870816, -0.07446822030441125, 0.024866920709278824, -0.06425569759273829, 0.09954525898261242, -0.1112889891409838], [-0.39908786809646557, 0.32674811716271346, 0.2525950705737068, 0.19607745587405476, 0.49669829594873, 0.6349829572442195, -0.42265618213608847, 0.13579236369409461, -0.4197988314480001, 0.060427215746376564, 0.5417487455288429, 0.41174789621358804, 0.2962949412484531, -0.4751468911414837, -0.2771697846155222, -0.26780218699223846, 0.40693005727684395, -0.014024433513405769, -0.07003679566262828, -0.2578830945438064, 0.3835326949105431, -0.3739875788601718, 0.38233214170162405, -0.7304657077234582], [-0.02534896638500195, 0.11668673523929135, 0.09639560840499677, 0.08386009894276686, 0.002274565993969621, 0.21733169343656708, -0.050780139066967406, -0.1426520158824743, -0.1684103623442196, -0.06448935480608442, 0.08622880263969769, -0.29999993277857223, -0.006076603430875304, -0.003927815842116556, -0.03616991092763735, -0.19589761051460028, -0.09372987848270266, 0.04084664653807558, -0.15707740419095223, 0.08789481537624452, 0.1865213683976885, 0.03804739960700333, 0.09171758107966108, -0.022914869451612266], [-0.01668955369579775, 0.030125325403194625, -0.029439871947339418, -0.0537125764753935, 0.11496484026416659, 0.08803819956268022, 0.25374259257848775, -0.057727143165441704, -0.08869015196784995, 0.22853084911530294, -0.10690398748540847, -0.060574340036133704, -0.05148534086996837, 0.13389549495815148, -0.29648598515464625, -0.18926994931141009, -0.08912801882576983, -0.041449490118157295, -0.031507160813141775, 0.16717812156639109, 0.016116390161845788, 0.25245399036831184, -0.1759320600694165, 0.061428912165081596], [-0.0371921982043636, 0.03446437356098276, -0.23039685062802093, -0.28943541040175585, -0.05090718118865123, -0.057767069645879854, 0.12062454116861854, 0.09544257993821692, 0.03369665483052707, 0.12338378948446847, 0.10216596391795284, -0.20341907883390958, 0.013946039408384, 0.050666484397259584, -0.06850553283316496, -0.01342044762448451, -0.11749751499058599, 0.19658718667317374, -0.08082726450364372, 0.09277370146876558, -0.044680170506872424, 0.09143271960392298, -0.20127212542337347, 0.34385934332134793], [-0.4436430855747256, 0.01067286734484362, -0.14146631621731914, 0.04018778650274963, -0.07846199627870377, 0.03340259040786403, -0.024705365562628492, 0.20950002726008696, -0.26294410377693045, -0.12919003948347546, 0.09807738882696056, 0.11012990426442663, -0.056716097680152844, -0.007596288690005799, 0.21491256627160782, 0.12666196481483943, -0.1279868322217872, -0.026685651632475778, -0.14977764624012327, 0.09465669523976905, -0.10002687968844597, 0.12380762702609943, 0.5060825006117916, 0.07886111466884001], [-0.27333508918448324, 0.27208997123176254, 0.10850405030454541, 0.06274577628280134, 0.1411676323753129, 0.33764812524822513, 0.0454124812228531, -0.14826337997565256, -0.2421356384654279, 0.3051242698310586, 0.24683304470258116, 0.10328151262497581, -0.0033585590580114937, -0.1111547024371411, 0.10515963533981294, -0.3719048555933458, 0.058959110651672864, -0.1269596878087087, -0.011005090289496427, -0.001881208870358407, 0.12991974351979327, -0.16093457034149974, -0.10570304197442108, 0.05746593028748337], [-0.2690424048231137, -0.22265147613150693, -0.0779925033887643, -0.006316946338445602, -0.02287090980599137, -0.09869078181988766, 0.12836804153745252, 0.031223696863603986, -0.1036613671288403, -0.22809429870565356, 0.3089105220055084, 0.09538433596365975, 0.17715808575597375, 0.06614376749412715, -0.23369900611277517, 0.06604026216403072, 0.1347893383924686, 0.09223744889833763, -0.0052219351414123875, -0.008191117993332296, 0.16777106957612029, 0.13740791898913066, 0.20089870938360838, 0.043962053066246], [-0.01036476898587042, 0.33244646280725476, 0.2795521846187174, 0.26827484736199025, 0.18096152701581172, 0.1788208658628729, -0.1020394174436629, 0.05057570860364504, -0.23141360550227769, 0.17703390760317195, 0.4999552368326464, 0.17893833012481536, 0.27894610131378766, -0.19877210519976504, 0.01761320024076681, -0.2153895354082342, 0.2567488564244918, -0.22732914618573702, -0.16236942452911013, -0.39612397645013925, 0.330065084150148, -0.19122187037063798, -0.0051884954987950135, -0.26397380373662555], [0.05138019310111001, 0.1616972707075208, -0.1770831607646443, -0.2552164459790828, -0.05481325542012654, 0.02730279094918537, 0.1062945341240274, -0.0169681952976151, -0.07793922144628708, 0.005944907098447514, -0.06167748681967402, -0.0010637543589866456, 0.09445890006085193, -0.035923222262761983, -0.11487725205556984, -0.2135778825103312, 0.12206265234816897, 0.0801649658770502, -0.10319240906142642, 0.143927509338509, 0.0031457952285206658, -0.09011818750168066, 0.18743865834128354, -0.22968059336635016], [-0.3862528353828402, 0.3970671386174031, 0.27382549880427376, 0.20476183090229275, 0.5993465116808109, 0.6437569190938157, -0.5205004590699346, 0.26137669385372747, -0.4071622840712545, 0.09290232304242833, 0.5369254631345763, 0.3551698384052119, 0.2685673533758764, -0.5941266310585871, -0.31815424892105765, -0.18783540414604458, 0.2435945273812161, -0.02246770394489492, -0.2033825372901963, -0.32570488029192485, 0.3411864552443618, -0.3251061008612468, 0.20905903162327277, -0.5728851009845021], [-0.3317730962886004, 0.6010979376152877, 0.394856790689006, 0.36978938519023963, 0.5159473869100981, 0.8079880899233721, -0.5065788946494906, 0.2882555011158529, -0.5481816891744834, 0.04996473414178348, 0.8071405678374105, 0.5009391928918826, 0.3644069038597894, -0.5216085008743542, -0.18491501488530518, -0.011622334271497961, 0.4941523506645974, 0.08041344662700553, -0.11512543987842197, -0.45359163692541027, 0.334819595025768, -0.46049517437523807, 0.24163417309219648, -0.7635091119438125], [-0.3456104553466585, 0.5589296054916967, 0.3446840596976034, 0.36969788337417825, 0.42838620813209266, 0.7495369461305116, -0.5449792235010299, 0.26639223798193123, -0.546970241143641, 0.10837315659350942, 0.7027553287361534, 0.42282941310799294, 0.352022408421403, -0.5956531245741449, -0.18227755642206012, -0.16993906187971883, 0.40180930058888176, 0.0021777635992985974, -0.0998004662050576, -0.4738390076703879, 0.32777888942422007, -0.4716380283803414, 0.2873390798926535, -0.8077737926727068], [-0.3702396256968959, 0.4582747323139715, 0.29742138223566256, 0.3623953648514327, 0.472173810334128, 0.6447369152214741, -0.5736203493006597, 0.3005307278220823, -0.5279154972963104, 0.00949602274642457, 0.4519065426471247, 0.35198848319228365, 0.3262338194016731, -0.5958087278142075, -0.2419572616654182, -0.0672538730344439, 0.3484434863622884, 0.0020451403865367457, -0.17738636324985446, -0.4961678760326952, 0.22736253953585547, -0.42783159956527855, 0.2922367476228199, -0.6278927009318488], [-0.35993207999453175, 0.5500356255018976, 0.2852803895976622, 0.3847890849459121, 0.49800387774174604, 0.5888109671307419, -0.5288128729046582, 0.18773021184843397, -0.4350396081744133, 0.01354130438064228, 0.6716442269959023, 0.4076194819665464, 0.3629111843087048, -0.6718705813201806, -0.18114837421707292, -0.10992656244178625, 0.35772918308947227, -0.030253691677368733, -0.12973874108855843, -0.403493012612989, 0.2606499582216894, -0.48663141208581834, 0.33743608688390064, -0.6787404495588641], [-0.33950482893840817, 0.4215172357024122, 0.3834115648199071, 0.37661858830310085, 0.6570791341465161, 0.7416344081421238, -0.5307676395955641, 0.2318728511215541, -0.6106362583613428, 0.08836735203862534, 0.5665248398066863, 0.4075646876732285, 0.14076799239384152, -0.5686701375595932, -0.26156430102785, -0.17384629030465998, 0.3199720568868593, 0.008942104984068826, -0.15433866322610407, -0.5168738935541136, 0.22268761730898107, -0.5148977865929745, 0.3255173852644669, -0.7027914294707532], [-0.3409438518837631, 0.5178973470092347, 0.2601174791522669, 0.2745998888095222, 0.5379533301237901, 0.8112299333584453, -0.4643270080185222, 0.2961899247564856, -0.41192017134759784, 0.010246248520297535, 0.6164580489463185, 0.4486688953034019, 0.3914826674035121, -0.6499462389206914, -0.24506675701703998, -0.11993697348501309, 0.307124292361815, -0.04254910305157768, -0.12183916759571128, -0.4303617937355434, 0.29174135556140535, -0.3890939950272158, 0.2626952251174071, -0.8817669898626042], [-0.3205984565352981, 0.5485665883730811, 0.2654261363124946, 0.3248289564979911, 0.5454848092145073, 0.7720402075876825, -0.5847469289297699, 0.37311054841969865, -0.33920935025783056, -0.004372932218522228, 0.6107867379629419, 0.33346667583712153, 0.2956511246684195, -0.6860214291979086, -0.3198450343828512, -0.05953365704170172, 0.3620078025252363, 0.007638262306074801, -0.14094781208670398, -0.49723796596188996, 0.3283291087141702, -0.307927164326461, 0.33121537909697313, -0.7375083451591071], [-0.04633454459262501, -0.03957072646883877, 0.15099292953348786, 0.24359916357746153, -0.12242816551445027, 0.38751355176167185, -0.17723027135407846, 0.09168033025109443, -0.0635102991230291, 0.32509751399947734, -0.0606441073761423, 0.24690290767029138, 0.5173614719834688, -0.6356177276003142, -0.44263157946448584, 0.09942259090802223, -0.1502104635284034, 0.16378730950064554, 0.2032499523458604, -0.1296867007911213, 0.020156008303062276, -0.25403408658196003, -0.10408947917227084, 0.1964505688917461], [-0.16620402611547097, 0.23884321784980622, 0.2868266761405098, 0.21085263493679504, 0.391125916727726, 0.4491969818803376, -0.3779819114571214, 0.03247679796657624, -0.3159723386880474, -0.06356122556980874, 0.26910996800449355, 0.30535689841060987, 0.015638536531250868, -0.38257334830752066, -0.36191600968733323, -0.18925249408227238, 0.26052706842321144, -0.0491164770019855, -0.06456659529605088, -0.3295846275343733, 0.4076709956338317, -0.30359161553898534, 0.2361041302958018, -0.48416035649154593], [0.05072658911829631, 0.24479137910462015, 0.3200153158358099, 0.07831664915702155, 0.43667862850061745, 0.043898085548930536, -0.38992105820782164, -0.10088565269151335, 0.005045500860021733, 0.03948194807691923, -0.09842722685978206, -0.007071934389335052, 0.5768330680275078, 0.06566319042495496, -0.3075416279921403, 0.03238025477672938, -0.11134972630696235, -0.004515853653232546, 0.23121372508063773, 0.12197938344078815, -0.18978169297333752, -0.49009968271314236, 0.2612207686154799, -0.3493806780735137]], "layer0.attn_wq": [[0.28737572566704367, 0.06697663345143794, 0.013761979168593393, -0.2693194952626466, 0.23267854707562935, -0.17989567762054623, 0.052472951523835264, 0.03207910187017455, 0.05109495719205871, -0.20161038226583325, -0.14184540695946093, 0.160517121465381, 0.021661142018536986, -0.17327318760997823, 0.07188501148606936, 0.015971330890199153, 0.08130587213324958, -0.11728333490508096, 0.0015062380071917464, 0.10180924617136565, -0.34506590487115407, -0.004265971841232474, -0.09682041984458904, 0.0289664990444095], [-0.03788116518916341, -0.0030153416626503386, -0.018948111022405772, -0.04350605294196132, 0.0650019056593894, -0.032460487100541315, -0.09949985158826798, 0.05547883162477342, 0.026124644383152217, -0.08619591204228855, -0.24790729384548207, 0.030814518655932814, -0.01898730219073433, 0.0455987385672736, 0.06472405776901304, -0.13531410693853807, 0.039636394562648114, 0.3723261770099296, -0.03758126240181443, 0.1664713479513144, -0.23347766149500607, 0.035401730265322916, -0.11463345014594928, -0.1321695306770241], [0.04554275731622285, 0.006547715757571046, 0.10522542722451933, 0.12277571530823495, -0.06807356733806975, -0.07152008428169325, 0.012071190334334155, -0.011603801987660417, 0.12620783769774485, -0.06201641408261521, 0.07618383064901621, -0.14904254273589723, -0.20094879194103835, -0.04793695130706325, 0.0280011753127042, 0.01971552764099317, -0.113818598567889, -0.08662603090850303, -0.0850583002770831, -0.04580039050840053, 0.303245883697381, 0.010346237581066222, 0.04814922539060968, 0.0757617776860273], [0.048790697510789904, -0.01857906963519877, 0.009452920755731783, 0.03548857658844497, 0.10451348328675959, -0.22335599866739625, -0.07503654374572184, -0.07887671452477817, -0.04877683912681637, -0.20917571146066433, 0.02336488884172306, 0.058207925240884785, 0.12592755071177866, -0.020492680495912564, 0.21262240868391305, -0.04957313566278472, 0.022154467203991227, -0.09538471040771689, -0.0403297470474348, 0.07787391357958012, 0.05595012411618468, 0.1170501980297624, -0.12175092701622224, 0.11287164999199954], [-0.0009681183745690788, -0.012592436889855438, -0.016105548590193138, 0.27243617554651833, -0.17301052278286216, 0.17505714899604344, -0.04884308411898276, -0.1748493807188043, 0.012305295593881835, 0.13999532644573606, 0.13256995577703395, -0.10965079833831999, 0.1654261239122125, 0.23957657042036487, -0.08026659720334584, 0.09638060804027015, -0.14705577467160277, 0.220175242527637, -0.10026257979979139, 0.04501357726513744, 0.15416635867798553, -0.019421967631670315, 0.006406663771052269, -0.074942129838968], [-0.018827812606506886, 0.06898436376445866, 0.1552962760238206, -0.0945048623991983, -0.0686717512591404, 0.22892387243905074, -0.05788155690262474, -0.04204074957605958, -0.010058536553393263, -0.1705940905000756, -0.022196834439323312, -0.17282213761651985, -0.06344815132167882, -0.010768295090450452, 0.2442215180686149, 0.03825538990063173, -0.19707228705395177, -0.011308630029658224, -0.05515523436876681, -0.14477235236835453, 0.25266832452176424, 0.14990192652486234, -0.1472839547923515, 0.11798175281976284], [-0.21537259776256287, -0.15978411968686987, -0.12968104439658343, -0.09372176112783606, -0.24701057005044236, 0.3293668188609854, 0.13664718614464857, 0.4810757062215826, 0.0050467868553934385, 0.10241474544901175, 0.12251358777717516, 0.0135293102971998, 0.03399795485178209, -0.1772279512265991, 0.0661653638236486, -0.02936341694499036, 0.13977381638168374, -0.09651948301510034, -0.07874761104049827, -0.18534058461231195, -0.3327619785485557, 0.019608719722323042, 0.017902265491246752, -0.09980238210120039], [0.236222021037228, 0.123084072046609, -0.05858038032732754, 0.22785383767175224, 0.028192198806652136, 0.06962625043458531, 0.05996623418887199, -0.15164692088091392, -0.13037411491597697, -0.30792137973851963, -0.08351366328927254, 0.05176166023648138, 0.019647776333743833, -0.13634996410580189, -0.021278348607939198, 0.020770173489243485, 0.12343947003756653, 0.1795850661027923,